tree
version=v4
num_class=1
num_tree_per_iteration=1
label_index=0
max_feature_idx=255
objective=binary sigmoid:1
feature_names=0 1 2 3 4 5 6 7 8 9 10 11 12 13 14 15 16 17 18 19 20 21 22 23 24 25 26 27 28 29 30 31 32 33 34 35 36 37 38 39 40 41 42 43 44 45 46 47 48 49 50 51 52 53 54 55 56 57 58 59 60 61 62 63 64 65 66 67 68 69 70 71 72 73 74 75 76 77 78 79 80 81 82 83 84 85 86 87 88 89 90 91 92 93 94 95 96 97 98 99 100 101 102 103 104 105 106 107 108 109 110 111 112 113 114 115 116 117 118 119 120 121 122 123 124 125 126 127 128 129 130 131 132 133 134 135 136 137 138 139 140 141 142 143 144 145 146 147 148 149 150 151 152 153 154 155 156 157 158 159 160 161 162 163 164 165 166 167 168 169 170 171 172 173 174 175 176 177 178 179 180 181 182 183 184 185 186 187 188 189 190 191 192 193 194 195 196 197 198 199 200 201 202 203 204 205 206 207 208 209 210 211 212 213 214 215 216 217 218 219 220 221 222 223 224 225 226 227 228 229 230 231 232 233 234 235 236 237 238 239 240 241 242 243 244 245 246 247 248 249 250 251 252 253 254 255
feature_infos=[0.00022463712529361652:0.99964814588177697] [8.6835242818057454e-06:0.56834501378676472] [4.4283699089849209e-06:0.66297543617174037] [0:0.37759795693189424] [0:0.38687573014018689] [0:0.36368173304416401] [0:0.37330729166666665] [0:0.59245948046181174] [0:0.44630039049041004] [0:0.33901263297872342] [0:0.58574307075504872] [4.316648623075422e-07:0.34267064144736842] [0:0.33568948412698413] [0:0.71479149510540607] [0:0.42578125] [0:0.85661538366824275] [2.3480094358672531e-06:0.32084517045454547] [0:0.39319082406850964] [0:0.224609375] [0:0.26188151041666669] [0:0.31454613095238093] [0:0.29423085010398825] [0:0.30623252312325233] [0:0.41878962862318841] [0:0.23168462821146246] [0:0.20222138029542922] [0:0.11182453256626258] [0:0.22868754040823866] [0:0.18682806988073242] [0:0.31677945859872614] [0:0.39726001794258375] [0:0.76087535511363635] [7.5953987074630185e-06:0.9431306531198691] [0:0.12916727053935712] [0:0.31760746474150542] [0:0.22973894525267993] [0:0.23521770967872505] [0:0.47229133768284576] [0:0.26676566804407714] [0:0.14459091137459806] [0:0.37556014150943395] [0:0.33359873429425602] [0:0.19317815721649484] [0:0.20367600401916211] [0:0.35287436595757021] [0:0.80061523749777719] [1.4662224501383564e-06:0.99770121745056084] [0:0.41449320778917909] [0:0.70410439996973362] [0:0.36131367880917159] [0:0.1970631669207317] [0:0.55581716269276726] [0:0.16005193945672191] [0:0.14949841461440644] [0:0.16335112643369817] [0:0.1950168965708271] [0:0.14723857161661558] [0:0.27888077445652176] [0:0.14162557633196721] [0:0.22857196514423078] [0:0.64028572789558502] [0:0.22333559782608695] [0:0.25278313464235624] [0:0.307861328125] [0:0.22636041718538191] [0:0.37591463414634146] [0:0.20421207220940452] [0:0.14403535518302885] [0:0.4234399211156501] [8.0515816526998562e-07:0.25008883651014396] [0:0.6311968380177515] [0:0.4435988040228323] [0:0.95291963657800594] [0:0.37760218811730739] [0:0.87208250809426113] [0:0.12375654974519924] [0:0.31764493324256221] [4.316648623075422e-07:0.42317238034302695] [0:0.19121869917066608] [0:0.40230909778225804] [2.8180535784449499e-06:0.1968019680196802] [0:0.13370641635216271] [0:0.16683818872704242] [0:0.1486961082175926] [0:0.33388482791144647] [0:0.47889985556090514] [0:0.52785966981132071] [0:0.27530369561340939] [0:0.39690026954177898] [0:0.83967227649892928] [1.7833390479442382e-07:0.12467122893640621] [0:0.38470262096774194] [0:0.15355335582386365] [0:0.11635118202982644] [0:0.15287805316091954] [0:0.12570435391609033] [0:0.18181997545586198] [0:0.92423882663140722] [0:0.1792246879657228] [0:0.13925197323460276] [0:0.26824972587719298] [1.4204029985715328e-06:0.1442934974559027] [0:0.46954801998519613] [0:0.13375299377119326] [0:0.22490622780539773] [0:0.13939883524328386] [0:0.22564590499890214] [0:0.28955078125] [0:0.11801771705698717] [0:0.14753727296696301] [0:0.16309101055194805] [0:0.22452302500795165] [0:0.18868133298620152] [0:0.12734915714831643] [0:0.13518756952290861] [0:0.11020975053619013] [7.5660625345877148e-06:0.83540333634903441] [0:0.8699798583984375] [0:0.2156219482421875] [0:0.45883298649017468] [0:0.16667437130177515] [0:0.3192455312220483] [0:0.27514599679029955] [0:0.23581498221958433] [0:0.18855445186829758] [0:0.15859931198379701] [0:0.11147117784019128] [0:0.21697071335078533] [0:0.54682597963828738] [0:0.17738285368966941] [0:0.16615240466402043] [0:0.16793710214120369] [0:0.59796569497944896] [0:0.13222370621443563] [0:0.17406770224883178] [0:0.21704864501953125] [0:0.63460218357740583] [0:0.26730647557218312] [0:0.16579739874301677] [0:0.1196612934644979] [0:0.12705431514187951] [0:0.1297666201111165] [0:0.13365544499577703] [0:0.30678488991477271] [0:0.98131458065544697] [0:0.12657173660890092] [0:0.18722452160825628] [0:0.12664190482981655] [0:0.14816775399641371] [0:0.31264562774122806] [0:0.14500790550595238] [0:0.12692646482051809] [0:0.12322803136012604] [0:0.38859789299242425] [0:0.091759933144332076] [0:0.14273821721311475] [0:0.14682567130708293] [0:0.2788786514945652] [0:0.29853597166730339] [0:0.049325132141958217] [0:0.14029947916666666] [0:0.47903276726477684] [0:0.39892426012461057] [0:0.29633681205540996] [0:0.31148473227896339] [0:0.18903755763211919] [0:0.13827007056940743] [0:0.19712271341463414] [0:0.1306453339041096] [0:0.19691581802081026] [0:0.13153377675815742] [0:0.17721632050304878] [0:0.12948668595123131] [0:0.23161514945652173] [0:0.11768493246553292] [0:0.17616069084753741] [0:0.17241356021068135] [0:0.31758396754592749] [0:0.13071442223496416] [0:0.40653624907922337] [0:0.12743030894886365] [0:0.3160552978515625] [0:0.24081050576535903] [0:0.1138925193843985] [0:0.19827956788277512] [0:0.30324135638297872] [0:0.12777281742798985] [0:0.49443359375000001] [0:0.11779442903037383] [0:0.12169245434000028] [0:0.23664541967509026] [0:0.45098855232428825] [0:0.60619059538583031] [0:0.26866150397598182] [0:0.15974433828733192] [0:0.37052585767663043] [0:0.13117580056848216] [0:0.12968480580311428] [0:0.16102076752598329] [0:0.13056929595943478] [0:0.09356061988901869] [0:0.17250536308913936] [0:0.33654720373081215] [0:0.10397879271660339] [0:0.56805126169786091] [0:0.60644840372614628] [0:0.19983761809593023] [0:0.21748308946857345] [0:0.27960374620225692] [0:0.23842643805309735] [0:0.17555703437466219] [0:0.19240032579965202] [0:0.29211004849137934] [0:0.12763293786830754] [0:0.20480994711282596] [0:0.34048972519455251] [0:0.28009270055970148] [0:0.25275104801829268] [0:0.26778714364035089] [0:0.13366272532115719] [0:0.31319625289351855] [0:0.49562977533801811] [0:0.28357336023351648] [0:0.22466654717167722] [0:0.36871453191651432] [0:0.52715340307203384] [0:0.30854273966386953] [0:0.28742428102355072] [0:0.61466716968477531] [0:0.41170756022135419] [0:0.61415423768939392] [0:0.21794077685421995] [0:0.35416666666666669] [0:0.34444157157357286] [0:0.33467306302288385] [0:0.394734413970804] [0:0.29864473298122068] [0:0.70405099252013814] [0:0.65477678571428577] [0:0.24562642769868254] [0:0.67149137763055344] [0:0.31388346354166669] [0:0.12582399507845843] [0:0.12475633528265107] [0:0.3304128095658852] [0:0.22046310240963857] [0:0.91145770981776231] [0:0.14158546531593408] [0:0.27062126608455883] [0:0.62425696040266154] [0:0.39862433954393772] [0:0.85348747359592447] [0:0.34450689284673658] [0:0.37328139213159489] [0:0.47636198906844107] [0:0.92449266575335698]
tree_sizes=3159 3586 3573 3584 3584 3594 3591 3602 3574 3577 3601 3589 3599 3604 3592 3603 3610 3599 3614 3618 3607 3603 3601 3614 3589 3607 3630 3614 3618 3627 3607 3625 3618 3626 3613 3605 3624 3623 3617 3616 3590 3603 3605 3605 3609 3615 3609 3625 3620 3637 3625 3632 3631 3625 3615 3629 3615 3614 3617 3639 3629 3624 3603 3632 3626 3609 3644 3633 3617 3625 3617 3634 3611 3638 3642 3623 3616 3608 3612 3630 3623 3621 3618 3634 3626 3631 3635 3617 3642 3630 3629 3608 3594 3628 3575 3615 3625 3609 3615 3615

Tree=0
num_leaves=31
num_cat=0
split_feature=239 32 111 106 104 48 113 231 106 8 93 245 171 41 204 111 195 125 95 101 69 188 22 15 102 255 5 21 96 6
split_gain=145449 27028 25695.5 16761.5 13242.1 11123 10732.3 7694.61 6481.55 6191.31 5135.1 5118.63 4425.57 4397.61 4040.31 3419.75 3348.19 3017.07 2952.45 2949.97 2612.71 2607.43 2436.05 2392.4 2312.55 2224.15 2163.34 2019.32 1972.73 1861.65
threshold=0.00092529412809437604 0.0019799015725538451 0.0039083045546837118 0.0012533684281962403 0.0040137200798358004 0.0036387458551637086 0.00095331594685002378 0.00044760265538570937 0.0021527878615639185 0.0064762960446039545 0.003167001284602896 0.01179339069112246 0.00062287308128103824 9.7621397662384022e-06 0.0038815936788497074 0.007790430086504087 0.003856163107121701 0.0033445529902758494 0.0046293636812363842 0.0049519107733811624 0.0028259598429130279 0.0019531788828777634 0.010620410766895143 0.00086486126882792322 0.0025060049006947372 0.10681899152600037 0.004889690366430958 0.023096137858265978 0.0014592909575330364 0.0038562658869560986
decision_type=2 2 2 2 2 2 2 2 2 2 2 2 2 2 2 2 2 2 2 2 2 2 2 2 2 2 2 2 2 2
left_child=1 18 6 10 5 20 19 13 -6 26 11 -3 -10 -5 15 -7 25 -14 -1 -2 -4 -12 27 -11 -25 -8 -9 -15 -21 -18
right_child=2 3 4 7 8 14 16 9 12 23 21 -13 17 22 -16 -17 29 -19 -20 28 -22 -23 -24 24 -26 -27 -28 -29 -30 -31
leaf_value=0.13336027480299051 -0.060204454180357796 -0.18566742118557886 -0.05846303501945526 0.14863945578231294 -0.11108864172564881 0.024415653799919862 0.17933934694976597 0.095076637250348359 -0.043983161561910296 0.18534310459693537 -0.13437499999999999 0.17339962709757614 0.15452037403256916 -0.13971268877820661 -0.1476921796312482 -0.14834216502649508 0.1349650734283043 0.052179878999563403 -0.15967523680649529 0.13351193942923706 0.11927668124335185 0.16002971768202082 0.14210526315789473 -0.13688088415882113 -0.040776699029126215 0.012396946564885497 -0.10730897009966778 0.15378151260504203 -0.0535819430814524 0.024114411441144117
leaf_weight=4949 2739 30483 1028 588 1483.5 3743.5 31567.25 4306 1722.25 375.25 544 402.25 10239.75 15610.25 6006.75 1651.25 4545.25 4008.25 369.5 2146.25 4230.5 673 323 3664.5 7905.25 818.75 602 238 764.25 2272.5
leaf_count=19796 10956 121932 4112 2352 5934 14974 126269 17224 6889 1501 2176 1609 40959 62441 24027 6605 18181 16033 1478 8585 16922 2692 1292 14658 31621 3275 2408 952 3057 9090
internal_value=0 -0.103825 0.0933934 -0.121374 0.0279843 -0.0357863 0.143141 -0.0720169 0.0888548 -0.0243043 -0.173052 -0.180991 0.107428 -0.119996 -0.0912775 -0.0284629 0.16171 0.12573 0.113002 0.0142844 0.0845298 0.0284306 -0.129764 -0.0631561 -0.0712159 0.175119 0.0702526 -0.135305 0.0843841 0.0980162
internal_weight=0 71033 78967 65714.5 34113.8 16660 44853.2 33612.2 17453.8 16853 32102.2 30885.2 15970.2 16759.2 11401.5 5394.75 39203.8 14248 5318.5 5649.5 5258.5 1217 16171.2 11945 11569.8 32386 4908 15848.2 2910.5 6817.75
internal_count=600000 284132 315868 262858 136455 66640 179413 134449 69815 67412 128409 123541 63881 67037 45606 21579 156815 56992 21274 22598 21034 4868 64685 47780 46279 129544 19632 63393 11642 27271
is_linear=0
shrinkage=0.1


Tree=1
num_leaves=31
num_cat=0
split_feature=239 32 111 54 106 113 63 252 6 120 245 204 47 240 245 38 113 16 27 81 195 209 186 1 63 201 182 255 106 149
split_gain=118535 22811.6 21018.8 11447.4 9603.45 8818.61 8698.99 10142.4 7829.76 4704.94 4656.77 3834.63 3688.71 4632.8 3627.88 2959.96 2822.1 2842.83 2795.5 2771.86 2733.73 2572.72 2520.46 2367.64 2464.32 2340.63 1969.85 1961.44 1727.53 1671.4
threshold=0.00092529412809437604 0.0045232874856893143 0.0039083045546837118 0.0040898336103328157 0.0012533684281962403 0.00096393463560161014 0.0038820695565600764 0.0015659100382749514 0.001511529538417279 0.006269951809949637 0.00064164684814209069 0.0038310548586466008 0.0019298424152161407 4.1605087854189783e-05 0.01179339069112246 0.0008561192850176871 0.00057200452610701774 7.3123554259129354e-05 0.001079732341183032 0.0012796612001892175 0.003856163107121701 0.00069077924834612706 0.00071025116804564257 0.014796173767168736 0.0036159856793393365 0.00058021076503931874 0.0012889683881219781 0.16648166858571098 0.0022461496814146623 0.0010118878597912804
decision_type=2 2 2 2 2 2 2 2 2 2 2 2 2 2 2 2 2 2 2 2 2 2 2 2 2 2 2 2 2 2
left_child=1 8 5 6 14 18 7 -4 16 12 -10 -8 13 22 -3 -9 17 -1 -2 -14 27 -15 -6 24 -17 -19 -12 -7 -25 -20
right_child=2 4 3 -5 9 20 11 15 10 -11 26 -13 19 21 -16 23 -18 25 29 -21 -22 -23 -24 28 -26 -27 -28 -29 -30 -31
leaf_value=0.17820821280996532 -0.060919843998830964 -0.16829408699748838 -0.13171532022509899 0.16211251055109444 -0.17815763261947093 0.16129353668389756 0.013512661992023623 -0.048670322716408809 -0.11073025183533619 0.11730139442184205 -0.034787093595216007 -0.15192440787504974 -0.14457063561096353 -0.15809818186824162 0.16103388362145821 0.10725049216829713 0.14083205260771564 -0.10517940750499305 -0.028430278771788983 0.064436276075428664 0.089094195813572211 -0.085141836832584958 0.18359137741679055 -0.11389287868310208 9.182490723597777e-05 0.066763150768409676 0.13474805493439695 -0.11139433973867843 0.06263869253882455 0.12912526873333088
leaf_weight=906.45760560035706 2662.2319812625647 28663.911021351814 3286.0476083159447 5182.147233068943 252.28798460960388 31770.727843120694 2030.6505541503429 2265.9496959745884 5577.6891327798367 1151.9069829881191 1396.3508088439703 4518.9413325041533 862.09761266410351 8366.8995543420315 338.44953495264053 11863.586998194456 3922.9966721534729 1648.5012577474117 989.18414177000523 2403.7560385614634 6770.6134335696697 11445.807205796242 814.14690382778645 1077.2888566106558 2620.0138172954321 1523.2808761298656 1345.9859745055437 265.98977363109589 1141.9813113212585 2108.4733555614948
leaf_count=3642 10667 115637 13195 20830 1014 128090 8140 9085 22433 4626 5608 18159 3462 33608 1364 47626 15759 6629 3965 9644 27166 45914 3270 4325 10507 6124 5398 1064 4588 8461
internal_value=0 -0.0940147 0.0845191 0.0252846 -0.125174 0.129691 0.000668213 0.0304808 0.00965045 -0.0801446 -0.058272 -0.100632 -0.0895643 -0.105023 -0.164451 0.0585787 0.0802792 0.0220313 0.014228 0.00926407 0.146828 -0.115951 0.0980119 0.0731283 0.087866 -0.0226022 0.0484237 0.15903 -0.0230541 0.0788126
internal_weight=0 70620.5 78553.8 33986.6 54299.3 44567.2 28804.5 22254.9 16321.3 25296.9 8320.03 6549.59 24145 20879.1 29002.4 18968.8 8001.24 4078.24 5759.89 3265.85 38807.3 19812.7 1066.43 16702.9 14483.6 3171.78 2742.34 32036.7 2219.27 3097.66
internal_count=600000 284132 315868 136455 218539 179413 115625 89326 65593 101538 33439 26299 96912 83806 117001 76131 32154 16395 23093 13106 156320 79522 4284 67046 58133 12753 11006 129154 8913 12426
is_linear=0
shrinkage=0.1


Tree=2
num_leaves=31
num_cat=0
split_feature=231 106 195 32 32 90 45 106 46 4 95 76 69 16 209 63 63 125 41 255 93 62 167 192 245 186 68 16 22 128
split_gain=97962 20752.8 20685.3 13503.2 10785.5 9597.6 7692.66 6594.24 5923.22 4535.35 4171.61 4075.2 3918.04 3785.16 3290.92 3333.89 2808.37 2504.89 2450.16 2158.92 2069.15 2052.78 2050.44 2000.05 1979.12 1968 1759.81 1726.27 1631.96 1628.4
threshold=0.00059995045237182525 0.0016353826066178156 0.003856163107121701 0.0029557399423030851 0.0041519414826548294 0.00057699023373566536 0.0036684571577872689 0.0014331969556669931 0.004223921954234793 0.010602718550670428 0.0034359468920096181 0.00055838095210062092 0.012002330764414716 0.0076677162358985288 0.00055613333373471087 0.002203968544048366 0.0038329612392204245 0.0035930202602201121 9.7621397662384022e-06 0.16648166858571098 0.0038676129603255126 0.0012778311025711182 0.00069294612345799909 0.0077840346801860199 0.0067248051827263414 0.00055627014092621242 0.0040425109005813031 0.014159607619382024 0.010620410766895143 0.0045815903131695883
decision_type=2 2 2 2 2 2 2 2 2 2 2 2 2 2 2 2 2 2 2 2 2 2 2 2 2 2 2 2 2 2
left_child=3 4 5 10 19 -3 13 20 16 17 21 -6 24 29 18 23 -8 27 -9 -2 28 -1 -15 25 -13 -16 -19 -7 -5 -4
right_child=1 2 6 7 11 9 8 14 -10 -11 -12 12 -14 22 15 -17 -18 26 -20 -21 -22 -23 -24 -25 -26 -27 -28 -29 -30 -31
leaf_value=0.098127971302343131 0.11741588969402737 -0.10430290255887167 0.099823146208111446 -0.15945076131612676 0.13163090188920548 0.14587788468608359 -0.0035809851956417728 0.12406860411844126 0.17130371247059442 0.013083173371460749 -0.12812390923577993 -0.14631344267716848 0.087429621991993944 -0.099466269238173102 -0.055099017076099148 -0.12697099211867366 -0.14540725420022155 0.02955540708000904 -0.1391415213044119 -0.14239930825843586 0.022323609164892011 -0.088279668887158158 0.053739477230865251 -0.078443482177048829 0.10168775822551973 0.059842549405603213 0.1307816279348625 -0.046714664735786962 0.06694644923939333 0.0071946317767116325
leaf_weight=4485.670216023922 3608.786690056324 1859.8220072984695 8106.5195206850767 27008.487689390779 708.73719327151775 41446.425815358758 1930.600846901536 369.34057499468327 864.87949268519878 3281.2864786684513 1279.2977890074253 8412.03182554245 855.25403228402138 2239.2815792262554 2421.820592135191 3951.9873594343662 5043.6653681248426 3544.9070448428392 8331.7335626631975 350.92044538259506 660.61321571469307 680.37112499773502 1432.342649936676 3530.519729167223 334.58276008069515 3869.8549945056438 3331.4506790488958 470.68862806260586 322.19326661527157 2478.0475640743971
leaf_count=18172 14646 7508 32728 111219 2899 169633 7768 1501 3481 13284 5185 34339 3465 9002 9788 15965 20476 14386 33889 1410 2680 2746 5778 14245 1367 15661 13562 1906 1326 9985
internal_value=0 0.0647588 0.0855279 -0.102757 -0.0458957 0.118913 0.00403458 -0.120164 -0.0755365 0.126885 0.0335433 -0.0997715 -0.116852 0.0477889 -0.0798237 -0.0494107 -0.106147 0.134538 -0.127969 0.0943903 -0.152555 0.073578 -0.039699 -0.0182041 -0.136827 0.0155987 0.0785974 0.143715 -0.156782 0.0781371
internal_weight=0 90300.2 76029.9 56911.9 14270.3 53934.6 22095.3 50466.6 7839.15 52074.8 6445.34 10310.6 9601.87 14256.2 22475.3 13774.2 6974.27 48793.5 8701.07 3959.71 27991.3 5166.04 3671.62 9822.2 8746.61 6291.68 6876.36 41917.1 27330.7 10584.6
internal_count=600000 367623 309497 232377 58126 220279 89218 206274 31725 212771 26103 42070 39171 57493 91049 55659 28244 199487 35390 16056 115225 20918 14780 39694 35706 25449 27948 171539 112545 42713
is_linear=0
shrinkage=0.1


Tree=3
num_leaves=31
num_cat=0
split_feature=239 32 111 54 106 113 45 106 6 69 120 238 33 47 240 245 24 189 204 81 139 112 243 16 255 98 165 12 72 63
split_gain=81753.3 16388 15584.4 8528.69 7033.32 6412.89 6025.32 6278.41 5508.83 5230.84 3534.13 3491.43 3449.73 2888.11 3572.77 2611.3 2494.91 2484.79 2473.03 2440.7 2244.84 2107.21 2075.79 2592.28 1973.12 1931.8 1849.34 1831.07 1736.26 1649.28
threshold=0.00092529412809437604 0.0045232874856893143 0.0039161391277267249 0.0043891448612089854 0.0012533684281962403 0.00078204357430389042 0.0036461368398534011 0.0019639967096945397 0.001511529538417279 0.013029644867813448 0.005967424019874313 0.00055442846095830097 0.0039147825127812067 0.0014732189210866691 4.1605087854189783e-05 0.01179339069112246 0.0038171207961499591 0.00055487664789937721 0.009858881371653215 0.0012796612001892175 0.029980448051290989 0.0036091253864509892 0.00045803772678616468 7.3123554259129354e-05 0.10077216862403361 0.0012952181978935016 0.00050952418314947586 0.0031518116366234558 0.012468736857854558 0.0019884256444009591
decision_type=2 2 2 2 2 2 2 2 2 2 2 2 2 2 2 2 2 2 2 2 2 2 2 2 2 2 2 2 2 2
left_child=1 8 5 6 15 25 7 9 18 -4 13 -10 21 14 27 -3 24 -13 22 -15 -9 -8 23 -1 28 -2 -16 -6 -7 -21
right_child=2 4 3 -5 10 16 12 20 11 -11 -12 17 -14 19 26 -17 -18 -19 -20 29 -22 -23 -24 -25 -26 -27 -28 -29 -30 -31
leaf_value=0.15853518707740122 -0.065604131416028666 -0.14483673738458888 -0.11750122498514404 0.14437252694341635 -0.15832706452546896 0.14143661215353323 0.080817602358075655 0.074776525508817707 -0.10608416303813178 0.1535039080606963 0.099922956151630396 -0.10252726336898391 0.097487965782050004 -0.12839147924241212 -0.14174594485028241 0.14053758918541717 0.066806779411058642 0.080128038390919226 -0.12189838137287051 0.085225781311467796 -0.048467525672432045 -0.11310841726995585 0.13645254503371276 -0.029385334163547695 0.0078187197222398044 0.080298955588236562 -0.076894790784679409 0.16175549770462705 -0.055059387318088772 -0.076109829780377627
leaf_weight=1065.2509259283543 2464.3654284179211 27147.199495598674 4033.7753118574619 4661.373984798789 231.19855824112892 31210.958661183715 611.27779044210911 13157.373173937201 4594.9500082433224 864.94189700484276 1193.1085628569126 1060.0536194592714 1042.2640327066183 1144.5756704062223 7425.5794779062271 324.47919316589832 6680.7144658714533 2504.1406886428595 625.09676259756088 2346.4095994085073 1664.9462722539902 6721.4068930447102 3788.4815844893456 2361.0729743540287 1197.1316479742527 1436.4090664833784 10782.183988243341 787.4284335821867 456.2578748613596 868.02810025215149
leaf_count=4436 9956 115637 16558 19499 969 131282 2483 53737 18933 3521 4872 4356 4243 4726 30718 1364 27633 10150 2539 9491 6720 27641 15553 9626 4877 5841 43964 3282 1877 3516
internal_value=0 -0.0795063 0.071182 0.0191011 -0.106622 0.11045 -0.00168253 0.0284957 0.00904832 -0.0696512 -0.0679903 -0.0484713 -0.0727452 -0.0764845 -0.0931466 -0.141466 0.122517 0.0258032 0.0689101 -0.00299257 0.0609329 -0.0969421 0.0854419 0.0290395 0.133841 -0.0118772 -0.103343 0.0891061 0.138606 0.0416586
internal_weight=0 68249.2 76203.2 32757.4 52250.2 43445.8 28096 19721 15999 4898.72 24778.5 8159.14 8374.95 23585.4 19226.4 27471.7 39545.1 3564.19 7839.9 4359.01 14822.3 7332.68 7214.81 3426.32 32864.3 3900.77 18207.8 1018.63 31667.2 3214.44
internal_count=600000 284132 315868 134402 218539 181466 114903 80536 65593 20079 101538 33439 34367 96666 78933 117001 165669 14506 32154 17733 60457 30124 29615 14062 138036 15797 74682 4251 133159 13007
is_linear=0
shrinkage=0.1


Tree=4
num_leaves=31
num_cat=0
split_feature=231 113 95 32 106 76 7 95 105 106 68 92 253 59 72 72 228 17 171 255 72 144 32 148 16 236 105 138 22 58
split_gain=68764 15224.8 14929.9 10342.3 8252.31 5924.72 5633.67 4544.52 3990.58 3777.78 3359.91 3099.71 2850.1 2537.38 2519.59 2500.63 2370.53 2222.53 2214.75 2542.53 2110.26 2059.84 1864.26 1740.62 1738.18 1660.07 1602.12 1517.3 1483.25 1398.85
threshold=0.00059995045237182525 0.00094330872709946832 0.003746922965782495 0.0049480844836006432 0.0018096135639084339 0.0032964030908745616 0.0038047723462055812 0.0027816350790457042 0.0046063911271243358 0.0015651312606873313 0.0039322938928306834 0.0011311048174797282 0.0020081304610627569 0.003407325367192232 0.010256357800708138 0.0054576068189700908 9.7739041916655823e-05 0.0014000430781775919 0.00042846922662647611 0.090046765388078584 0.0086577808211695077 0.0037642971297251449 0.0041519414826548294 0.0060462347080620944 0.0087095420735639698 0.0038586235173448283 0.011109780807199215 0.004415218789890007 0.010620410766895143 0.0057265615449382723
decision_type=2 2 2 2 2 2 2 2 2 2 2 2 2 2 2 2 2 2 2 2 2 2 2 2 2 2 2 2 2 2
left_child=3 5 4 7 8 11 21 17 20 28 -8 23 -9 -6 -15 -12 26 -1 29 -20 -3 -4 -7 -2 -13 -14 -11 -26 -5 -18
right_child=1 2 6 9 13 22 10 12 -10 16 15 24 25 14 -16 -17 18 -19 19 -21 -22 -23 -24 -25 27 -27 -28 -29 -30 -31
leaf_value=0.065595206814371865 -0.085384935390742545 0.081265937817089198 0.0088739398900492435 -0.14118167233426379 0.13094698346294695 0.063955573047840913 -0.10884692144965016 -0.12711482797397408 -0.12188101565247811 0.14680646579450371 0.051372062811775088 0.076053764671204019 0.12215621833562712 0.090081997420830673 -0.10213886176869671 -0.13849942388598757 -0.13158242259427796 -0.047466503566116286 -0.065861360410784595 0.12772084577805679 -0.14701864554443447 0.11542215239702412 -0.12665760160327577 0.14497058581813507 -0.083806527101997402 -0.086019447695661749 -0.1311368987648413 0.17948172076995186 0.082881923945031424 0.064252131219930703
leaf_weight=5912.1711352616549 3237.4164471626282 3148.8979440480471 3771.6971273124218 24367.439579665661 33050.752658814192 566.0513763576746 5384.9670213609934 4119.8645765185356 2082.7683147192001 753.73246219754219 3259.2031075060368 5880.3557415008545 880.97629408538342 13396.619428500533 718.48445078730583 881.16538216173649 7455.7340346723795 2462.9826893210411 5894.823952794075 766.72410893440247 464.68875333666801 3496.4576232731342 5484.8898552656174 365.00873596966267 1351.0410939902067 677.75859288871288 286.11054876446724 261.19810670614243 299.06737227737904 383.51010815799236
leaf_count=24489 13481 13304 15685 107672 142933 2308 22417 17367 8792 3199 13505 24240 3618 56257 3029 3777 31437 10218 24363 3152 1941 14700 23097 1578 5527 2799 1216 1052 1248 1599
internal_value=0 0.0551855 0.075964 -0.0883235 0.102058 -0.0292276 -0.00617546 -0.0144786 -0.0116337 -0.114135 -0.0567692 0.0141835 -0.0835381 0.115789 0.0802976 0.0109631 -0.0755171 0.0323458 -0.0859758 -0.0435806 0.0519097 0.0601306 -0.108826 -0.0620446 0.0508338 0.0316387 0.070331 -0.0411513 -0.138465 -0.122002
internal_weight=0 86801.7 69655.7 54260.9 52862.2 17146 16793.5 14053.8 5696.36 40207.1 9525.34 11095 5678.6 47165.9 14115.1 4140.37 15540.6 8375.15 14500.8 6661.55 3613.59 7268.15 6050.94 3602.43 7492.59 1558.73 1039.84 1612.24 24666.5 7839.24
internal_count=600000 367623 296340 232377 226256 71283 70084 58491 24037 173886 39699 45878 23784 202219 59286 17282 64966 34707 60551 27515 15245 30385 25405 15059 30819 6417 4415 6579 108920 33036
is_linear=0
shrinkage=0.1


Tree=5
num_leaves=31
num_cat=0
split_feature=245 113 111 32 104 6 106 40 106 163 204 111 195 243 41 32 59 32 22 67 110 63 19 255 68 0 95 5 191 185
split_gain=58507.5 14327.4 13428.9 7699.07 7574.13 6475.03 4533.03 4180.4 3383.57 3081.94 2755.87 2713.25 2491.18 2150.17 2582.85 1978.64 1959.14 1815.09 1795.02 1775.72 2099.19 1543.39 1522.08 1425.76 1404.25 1372.18 1325.73 1290.24 1270.97 1259.14
threshold=0.00058401051695499936 0.00094330872709946832 0.0039083045546837118 0.0020617398925306765 0.0040287272534861593 0.0034569924935454284 0.0010080777675818156 0.0028806303890201597 0.0022461496814146623 0.00082483523708216304 0.0038815936788497074 0.0088191052686784708 0.003856163107121701 0.00079921398781193339 1.0000000180025095e-35 0.004281047124216006 0.0028159377021749958 0.0053539796039694691 0.010620410766895143 0.0031420539342611577 0.0053225997034153849 0.0020844518573515029 0.0083115113671335672 0.16648166858571098 0.0040843801439904995 0.11477950319292012 0.0046293636812363842 0.003874767026209217 0.0038737349649343401 1.0000000180025095e-35
decision_type=2 2 2 2 2 2 2 2 2 2 2 2 2 2 2 2 2 2 2 2 2 2 2 2 2 2 2 2 2 2
left_child=3 7 12 26 5 -4 -5 9 -6 15 11 28 23 14 -8 -2 -10 21 -16 -11 -21 -15 -19 -3 -18 -9 29 -14 -7 -1
right_child=1 2 4 6 8 10 13 25 16 19 -12 -13 27 17 18 -17 24 22 -20 20 -22 -23 -24 -25 -26 -27 -28 -29 -30 -31
leaf_value=-0.20714262733445171 0.028756107102169817 0.12386549241266687 0.084793001489621142 -0.13259660082526997 -0.074727762175958209 0.060362637835658463 0.1175319934987536 0.078208198950872096 0.1251323864287387 -0.0063577562064088301 -0.11289362260795506 -0.12374159973607486 0.095403360176463392 0.070841621764488841 -0.10750753707734609 -0.094552483689204173 -0.0004527514922672074 -0.077697618707060989 0.11860356578005965 0.12043992663446386 -0.064393275516654497 -0.080649280112716965 0.13842469804090582 -0.086092582867883335 0.085966221090603312 -0.12044625975664754 -0.12970047127072926 0.0094620069767449907 -0.062366897836129614 0.087747494484762226
leaf_weight=152.01249949634075 1917.8774764090776 30641.203070521355 3833.757084518671 21509.8228341043 1466.168288230896 3053.339950889349 559.45722796022892 375.43848636746407 6539.1676151007414 4188.1329381614923 5929.9900517761707 1682.5438020527363 3781.5401269644499 2376.0618597269058 13499.285340204835 4047.7794693410397 3163.2245416641235 5457.8401851505041 360.47161921858788 3328.8424137532711 753.55231548845768 938.00512264668941 346.55577027797699 326.88191682100296 4636.1501432359219 4707.338085860014 355.90034584701061 3246.7056537270546 1166.0310990363359 3049.724756360054
leaf_count=614 7927 138352 16157 99080 6223 12711 2441 1563 28761 17270 25598 7201 16055 9824 58649 17110 13159 23045 1545 13939 3154 3956 1520 1324 19458 20742 1536 13442 4782 12862
internal_value=0 0.0482526 0.069437 -0.0882284 0.0211253 -0.0281506 -0.0994131 -0.0279218 0.0699676 -0.000126593 -0.0647464 -0.0163701 0.109451 -0.0690885 -0.0931235 -0.0549105 0.0847633 -0.0310814 -0.101627 0.0393898 0.0863223 0.027964 -0.0647939 0.121649 0.0509169 -0.105773 0.0533941 0.0557027 0.0264461 0.0737467
internal_weight=0 88785.7 69466.7 48605.1 31470.4 15665.7 45047.5 19319 15804.7 14236.2 11831.9 5901.91 37996.3 23537.7 14419.2 5965.66 14338.5 9118.46 13859.8 8270.53 4082.39 3314.07 5804.4 30968.1 7799.37 5082.78 3557.64 7028.25 4219.37 3201.74
internal_count=600000 384928 303223 215072 134050 66449 200060 81705 67601 59400 50292 24694 169173 100980 62635 25037 61378 38345 60194 34363 17093 13780 24565 139676 32617 22305 15012 29497 17493 13476
is_linear=0
shrinkage=0.1


Tree=6
num_leaves=31
num_cat=0
split_feature=245 1 204 67 32 48 111 63 118 106 255 53 86 40 67 139 94 68 139 232 58 247 209 240 72 90 253 32 111 141
split_gain=49132.3 12417.3 10911.2 6934.45 6621.29 5591.32 4723.77 4133.47 4755.33 3395.05 2907.77 2590.92 2485.84 2435.72 2373.17 2108.43 1960.4 3307.86 1940.27 2007.72 1825.96 1671.21 1652.7 2293.97 1528.11 1461.21 1407.74 1463.24 1300.53 1204.41
threshold=0.00058401051695499936 0.016795769115105056 0.0037680714017389251 0.0044198154064790532 0.0032737632483435413 0.0034179824158620214 0.0051744990660078502 0.0039058075866287207 0.0013238435221708885 0.0010080777675818156 0.16648166858571098 0.0036467222099712941 0.0034877301113356756 0.00067229541158671062 0.0031196118126902593 0.029023520598188399 0.003771714233639754 0.0039322938928306834 0.0031366745286351139 0.017476044581983555 0.0057265615449382723 0.00077766390843884905 0.00035512840222881928 9.6535821009466476e-05 0.012468736857854558 0.00048830581060745786 0.0013543360988261001 0.0052034843976081074 0.0039831798695045767 1.0000000180025095e-35
decision_type=2 2 2 2 2 2 2 2 2 2 2 2 2 2 2 2 2 2 2 2 2 2 2 2 2 2 2 2 2 2
left_child=4 2 6 7 13 -3 10 8 -4 -6 12 18 25 29 -14 16 24 -18 -8 -20 22 -15 -11 -24 -10 -2 -25 -28 -9 -1
right_child=1 5 3 -5 9 -7 11 28 15 20 -12 -13 14 21 -16 -17 17 -19 19 -21 -22 -23 23 26 -26 -27 27 -29 -30 -31
leaf_value=-0.18917440275186478 -0.039269377262978147 0.055083874143424152 -0.11244202288918725 0.11097371594233166 -0.12673240899816049 -0.10302018431120118 -0.10519380948127864 -0.0076315802178248716 0.085416156519842551 -0.12032072735637718 -0.1303709094790225 0.10490548184669818 -0.022690304749586759 -0.10813279753839827 0.089263024442388914 -0.06321786430523349 -0.10457144891511534 0.079758511044888888 0.051239822610351753 -0.11280758490270433 0.076163166653510528 0.034539416354343905 0.11709496594759471 -0.094620328770770146 -0.0981010640516779 0.12560596847090888 0.038979762552997163 -0.065732506492647808 -0.12875442047778024 0.092002788195480356
leaf_weight=160.85680769383907 548.7331779897213 3181.6144372224808 2817.886766269803 5235.6992490887642 19908.109339520335 7532.3676173985004 1651.2082209438086 1173.2933093309402 7542.3573934435844 5718.3380173742771 531.04061941802502 2704.1848041266203 2339.5780592858791 1902.2428735345602 9929.6657409518957 2069.7232191115618 1940.4919685870409 1953.7224038094282 3949.0212920606136 919.81448903679848 833.04008492827415 1444.4419495761395 721.51087519526482 7518.4547910094261 482.77567724883556 26323.980058506131 2046.2338129132986 3836.7549974620342 3626.4189113080502 2877.4724842011929
leaf_count=649 2388 13977 12239 23519 96768 33444 7106 5010 33055 26207 2179 12131 9969 8203 43552 8663 8143 8320 16788 3820 3535 6056 3337 32937 2077 122364 8563 16435 16184 12382
internal_value=0 0.0446948 0.0589487 0.00772083 -0.0823643 -0.0560697 0.0870705 -0.0172993 0.00607439 -0.0972574 0.102058 0.0226113 0.105211 0.0122945 0.067915 0.0299477 0.0461254 -0.0120933 -0.0115201 0.0202482 -0.0688747 -0.0465549 -0.0749642 -0.0565994 0.0743761 0.122239 -0.0659508 -0.0293113 -0.0991458 0.0771166
internal_weight=0 86453.6 75739.6 26842.4 46967.5 10714 48897.2 21606.7 16807 40582.4 39673 9224.23 39142 6385.01 12269.2 13989.1 11919.3 3894.21 6520.04 4868.84 20674.3 3346.68 19841.3 14123 8025.13 26872.7 13401.4 5882.99 4799.71 3038.33
internal_count=600000 384928 337507 117210 215072 47421 220297 93691 72497 187782 180452 39845 178273 27290 53521 60258 51595 16463 27714 20608 91014 14259 87479 61272 35132 124752 57935 24998 21194 13031
is_linear=0
shrinkage=0.1


Tree=7
num_leaves=31
num_cat=0
split_feature=239 195 106 32 106 32 72 68 94 120 218 47 159 63 201 135 105 60 32 113 120 32 47 69 156 69 201 160 181 32
split_gain=42001.3 9492.51 8781.83 8554.89 6081.38 4819 3178.55 4410.15 3635.87 3022.75 2888.95 2404.81 2384.14 2337.54 2515.35 2220.54 2092.34 2325.42 1708.99 1624.75 1594.39 1509.48 2048.77 1777.03 1404.3 1357.58 1322.72 1295.2 1362.26 1161.94
threshold=0.00084116918266608648 0.003856163107121701 0.0018096135639084339 0.0019799015725538451 0.0010080777675818156 0.0049346112872990433 0.0095427475809631204 0.0039502397701338043 0.0036019925559313951 0.0052352081469569179 0.0011539971892860718 0.0009087670530472311 0.00066129882209832707 0.0019884256444009591 0.00027308827979752851 1.5386305853109126e-06 0.0038545071143554761 0.0025823163472498693 0.0038377454151289048 0.0010947187572076034 0.00181736147862775 0.0047364778037847282 0.00078542017494038152 0.0033596866964255754 0.0021347562753479461 0.012785812066517218 0.00073985865180288231 0.0013395807448991954 0.00032556946589276501 0.0053088640815857572
decision_type=2 2 2 2 2 2 2 2 2 2 2 2 2 2 2 2 2 2 2 2 2 2 2 2 2 2 2 2 2 2
left_child=3 2 5 -1 24 20 7 8 -3 10 13 18 29 14 -6 -16 -13 -18 -4 -11 -2 26 -23 -24 -5 -12 -17 28 -25 -9
right_child=1 6 11 4 9 -7 -8 12 -10 19 25 16 -14 -15 15 21 17 -19 -20 -21 -22 22 23 27 -26 -27 -28 -29 -30 -31
leaf_value=0.068450008221584979 -0.025126514757428893 0.040238520239735322 0.081250410969469347 -0.12057946717239337 -0.13035015735706185 -0.089371763455929287 -0.11734246936292275 0.050107310341753232 -0.098544978949707984 -0.10723886416168092 -0.052264424688294203 0.11766186808181572 0.071538608411884141 -0.11153791551015091 0.099278575470492764 -0.098375512656373842 0.10565814056755417 0.027356057893121306 -0.064399552500196952 0.12210912868136259 0.11357497879595956 -0.097627324241418373 -0.10763919912403519 -0.075339872756199952 0.027750382469324902 0.10897238837188739 0.048051176972222213 -0.075492464317372721 0.088291223093136376 -0.11154948493506736
leaf_weight=4500.9003738462925 1274.8740404993296 2980.7095610499382 1633.8589862436056 20891.252495840192 2987.9179842025042 4539.3652929216623 2264.8617698699236 706.22165706753731 5147.8795588463545 388.22468690574169 802.03546230494976 24076.588470369577 8911.6241942346096 7497.0090802460909 1218.208094522357 791.23351600766182 8420.6259810179472 6901.1030338406563 1589.1627826839685 1511.4360886067152 2368.4286029785872 6233.3285271376371 1489.4331646263599 647.37984570860863 658.38384199142456 1496.6779084801674 2800.2046126127243 1053.570043027401 2376.4180044233799 1200.3444346934557
leaf_count=20121 5588 12760 7401 106611 14409 20433 10449 2921 22536 1679 3466 118433 38685 33264 5558 3463 38789 30492 6715 6596 10639 27957 6919 2924 3280 6376 11710 4619 10185 5022
internal_value=0 0.0508079 0.0742672 -0.063895 -0.0751675 -0.0206204 -0.00537953 0.00800431 -0.0476538 -0.0470159 -0.054917 0.0924842 0.0498248 -0.0640486 -0.0458817 -0.0306868 0.0992781 0.0703899 0.00943535 0.0752384 0.0650402 -0.0409733 -0.05825 -0.014158 -0.116048 0.0527159 0.0157918 0.01999 0.0532586 -0.0516693
internal_weight=0 72015.6 50804 57343.6 52842.7 8182.67 21211.6 18946.8 8128.59 31293.1 29393.4 42621.3 10818.2 27094.7 19597.7 16609.8 39398.3 15321.7 3223.02 1899.66 3643.3 15391.6 11800.1 5566.8 21549.6 2298.71 3591.44 4077.37 3023.8 1906.57
internal_count=600000 330863 238490 269137 249016 36660 92373 81924 35296 139125 130850 201830 46628 121008 87744 73335 187714 69281 14116 8275 16227 67777 52604 24647 109891 9842 15173 17728 13109 7943
is_linear=0
shrinkage=0.1


Tree=8
num_leaves=31
num_cat=0
split_feature=231 32 106 233 32 63 67 93 89 22 95 68 255 191 95 33 34 105 128 18 8 4 245 68 139 57 29 110 186 107
split_gain=35855.1 8907.79 9248.88 7804.13 6367.95 3686.4 3871.11 3342.95 2921.91 2880.73 2825.97 2487.33 2220.08 2107 2078.15 2073.97 1992.93 1747.9 1467.86 1421.24 1354.7 1289.18 1279.49 1274.63 1928.93 1554.24 1183.34 1168.34 1235 1110.1
threshold=0.00059995045237182525 0.0034865811720823018 0.0021973143946014784 0.0025252669039964632 0.0049480844836006432 0.0039058075866287207 0.0023521963529392113 0.0029853390296569536 0.0013126975960831933 0.010620410766895143 0.0027816350790457042 0.0024486404432341974 0.16648166858571098 0.00061491399900959296 0.0023488227865991807 0.0012722680425665005 0.0039358088659984386 0.0038545071143554761 0.0045450064366841575 0.0018233767571615709 0.0082564556593018798 0.010845245618797425 0.003708370665240841 0.0039668067221450233 0.038875609412829769 0.0039640473135771877 0.0010321535825550795 0.0044633644054741127 0.0034862194088762372 0.0014422829282595433
decision_type=2 2 2 2 2 2 2 2 2 2 2 2 2 2 2 2 2 2 2 2 2 2 2 2 2 2 2 2 2 2
left_child=4 12 7 15 10 6 26 11 9 -6 19 27 -2 -12 18 -4 -7 -8 -10 29 -15 -17 -13 25 -25 -19 -5 -3 -29 -1
right_child=1 2 3 5 8 16 17 -9 14 -11 13 22 -14 20 -16 21 -18 23 -20 -21 -22 -23 -24 24 -26 -27 -28 28 -30 -31
leaf_value=0.021329452177833198 0.10867735489740732 0.067487757252076175 0.019582705266029826 -0.11928529229922823 -0.1184468218793894 -0.084394618858096918 0.078803598407463579 0.086329614181471157 0.049385707355453466 0.13681952146739607 -0.11728052729079588 -0.11447326234895885 -0.10625886207760249 0.087793339009539728 -0.078035767332573336 0.1179753226708769 0.093209578048518302 -0.044511385511007195 -0.10119584446820712 -0.080105050047399068 -0.078073297161275965 -0.01193512578526649 0.047097844747441331 0.066272714776761998 -0.12686147472607454 0.095968629913069495 -0.0034994418929464527 -0.11000148280367161 0.11864747866980992 0.11362962872451109
leaf_weight=5169.8456666022539 17769.804295688868 1471.8264815062284 2995.5020711272955 1971.5706258267164 21411.673325553536 4884.3521323204041 8871.1082732975483 1473.6535372287035 2655.0424217283726 451.41598322987556 3183.5340896695852 7279.0789962559938 493.920101121068 1104.2897348105907 9000.3594460785389 13934.383629590273 725.67671392858028 4116.8821636736393 856.08052785694599 1053.2777360528708 888.67111855745316 808.18452127277851 525.51411144435406 5882.9850523322821 566.967155367136 973.87622800469398 1598.1687217950821 1088.0376277416945 301.73746979236603 1742.1446996033192
leaf_count=22317 88056 6711 12894 8672 113197 22574 41693 6456 12202 2086 15066 34639 2043 4838 42464 70375 3270 17737 3937 4727 3880 3428 2345 26407 2355 4347 6993 5137 1491 7663
internal_value=0 0.0417797 0.0230199 0.0429926 -0.0684856 0.0115539 0.028625 -0.0548478 -0.0911209 -0.113176 -0.009279 -0.0743531 0.102865 -0.0668017 -0.0525805 0.0954404 -0.0614209 0.0454268 0.012671 0.0281041 0.0138326 0.110854 -0.103594 0.0197708 0.0492957 -0.0176372 -0.0674481 0.00539729 -0.0603589 0.0445934
internal_weight=0 77733.2 59469.5 47329.7 47516.3 29591.6 23981.6 12139.8 34374.6 21863.1 13141.8 10666.2 18263.7 5176.49 12511.5 17738.1 5610.03 20411.8 3511.12 7965.27 1992.96 14742.6 7804.59 11540.7 6449.95 5090.76 3569.74 2861.6 1389.78 6911.99
internal_count=600000 367623 277524 220745 232377 134048 108204 56779 173886 115283 58491 50323 90099 23784 58603 86697 25844 92539 16139 34707 8718 73803 36984 50846 28762 22084 15665 13339 6628 29980
is_linear=0
shrinkage=0.1


Tree=9
num_leaves=31
num_cat=0
split_feature=245 32 106 95 33 114 1 40 49 118 236 19 94 112 255 128 93 53 36 72 128 93 113 170 89 61 239 89 119 236
split_gain=30687.2 8284.61 8139.01 6727.17 5857.05 4528.76 3840.82 2895.92 2600.28 2296.57 2282.12 2184.39 2169.9 2011.76 1846.62 1731.15 1674.69 1923.55 1489.76 1460.22 1503.03 1445.79 1896.31 1436.61 1413.04 1374.83 1286.16 2143.49 1278.4 1237.82
threshold=0.00058401051695499936 0.0034521047673695998 0.0021973143946014784 0.0037611595700177522 0.0013021519507096684 0.0045700697293488456 0.013782086004185378 0.0017492225524612123 0.0068468833959172033 0.0013006551468284003 0.0038764775470496375 0.0079314751468769346 0.0021207268777799809 0.012638283914109124 0.16648166858571098 0.0049957980192463242 0.0028587726306303837 0.0024790248965765337 0.019563005471979446 0.010256357800708138 0.0043780062207076321 0.0028829066895121529 0.0030195539414582598 0.0039191073692942122 0.0016617549010733035 0.0021946028850153157 5.3327647811992789e-06 0.00029767131433349928 0.0020313955084309966 0.0038764775470496375
decision_type=2 2 2 2 2 2 2 2 2 2 2 2 2 2 2 2 2 2 2 2 2 2 2 2 2 2 2 2 2 2
left_child=5 14 6 4 9 7 16 26 11 -4 18 24 -6 -13 29 -11 17 -3 -5 20 -14 22 -10 -12 -7 -19 -1 -28 -26 -2
right_child=1 2 3 10 12 8 -8 -9 21 15 23 13 19 -15 -16 -17 -18 25 -20 -21 -22 -23 -24 -25 28 -27 27 -29 -30 -31
leaf_value=0.11166091445260284 0.11275916357560856 -0.074614605504533804 -0.092570402492714088 0.031830677540653357 0.11878740211476264 -0.11927996837657913 -0.099900595954540386 -0.078272210465345632 -0.10155258660705371 0.043707791113785387 -0.079970680297875463 -0.097206888189937821 0.086037547001315939 0.13676739973296653 -0.0923025205504725 -0.07933735970702871 0.12014029352726463 0.12212366605155225 -0.13012651671435463 -0.10722659698809689 0.012728912567535833 0.13783955045544266 0.12320047287926872 0.092928513075314564 -0.093364972757436507 -0.084099173066353311 -0.11550418571304091 0.033963221411260076 0.0014875859873224526 0.034403926627166147
leaf_weight=1336.4374103099108 14946.25747205317 2386.3978437483311 2297.4179439693689 6208.3480149358511 11074.288633957505 19143.62390948832 7272.5311653465033 4633.1993768662214 1301.2893358767033 6296.8837605267763 5921.0240931212902 732.91494397819042 10269.344403490424 737.03528405725956 502.36815217137337 1397.1129516065121 1135.8841778934002 1191.6813054531813 625.1460225880146 503.56160350143909 3843.5325483083725 640.75202205777168 527.61233851313591 523.01597565412521 5109.4677754193544 443.62219247221947 1211.2852274030447 4615.0692047327757 1968.2964880168438 2330.504851847887
leaf_count=6463 78336 10994 10318 27787 60011 106305 36102 22948 6839 27545 27219 3920 49632 3763 2107 5914 5080 5689 2752 2504 17755 2811 2439 2416 24335 1971 5688 20541 9020 10796
internal_value=0 0.0365834 0.0191747 0.0375214 0.0601329 -0.0692 -0.0530889 -0.0166657 -0.0897463 -0.00483348 -0.0232451 -0.0985149 0.0853991 0.0201082 0.0966941 0.0213647 0.0129187 -0.0173648 0.0170144 0.0601021 0.0660725 0.00857358 -0.0367145 -0.0659377 -0.105165 0.0661799 0.023184 0.0028893 -0.0669869 0.10219
internal_weight=0 79168.9 61389.8 48959.7 35682.1 41957 12430.1 11796 30161 9991.41 13277.5 27691.3 25690.7 1469.95 17779.1 7694 5157.59 4021.7 6833.49 14616.4 14112.9 2469.65 1828.9 6444.04 26221.4 1635.3 7162.79 5826.35 7077.76 17276.8
internal_count=600000 384928 293689 233853 173679 215072 59836 55640 159432 43777 60174 147343 129902 7683 91239 33459 23734 18654 30539 69891 67387 12089 9278 29635 139660 7660 32692 26229 33355 89132
is_linear=0
shrinkage=0.1


Tree=10
num_leaves=31
num_cat=0
split_feature=181 32 110 54 98 120 58 48 223 80 139 204 112 19 138 72 182 51 89 221 77 112 255 1 240 203 255 237 187 206
split_gain=26415.1 7512.18 6625.99 4303.63 3869.62 3581.21 2883.15 2842.4 2731.8 2466.84 2316.19 2103.91 2284 2049.59 1916.47 1910.42 1625.39 1624.92 1585.61 1581.16 1574.93 1523.33 1279.86 1247.69 1204.83 1196.48 1656.5 1194.79 1173.35 1149.27
threshold=0.00081772733876233565 0.0055679654731556711 0.0037421428599579963 0.0040898336103328157 0.0008905167918657771 0.004009099933667327 0.0042811578883356237 0.0042138719657313943 0.0038570383369243145 0.0051694724043489073 0.0016964544424901298 0.0075451584116507323 0.0039382755389089944 0.0079314751468769346 0.0033461677410194851 0.011300780668094946 0.0013046719851040869 0.0031703980051571638 0.0016617549010733035 0.00041431463264731658 0.0063408662241837286 0.012638283914109124 0.12471677697564039 0.004755600485228508 0.003914455953124364 0.00087604973481209155 0.035714468533714995 0.0021034004980570831 1.0000000180025095e-35 0.0025603776915692181
decision_type=2 2 2 2 2 2 2 2 2 2 2 2 2 2 2 2 2 2 2 2 2 2 2 2 2 2 2 2 2 2
left_child=1 5 4 7 -2 11 13 8 10 -9 -4 12 20 18 -13 19 -11 -8 -3 -6 22 -15 28 -20 -12 -21 -27 -14 -1 -28
right_child=2 6 3 -5 15 -7 17 9 -10 16 24 14 27 21 -16 -17 -18 -19 23 25 -22 -23 -24 -25 -26 26 29 -29 -30 -31
leaf_value=-0.14454131895568517 -0.048513975391207449 -0.10986525075146003 -0.094266334003814012 0.10365793585325545 -0.0854066553996468 0.091679660461598339 -0.10126496837124205 -0.092125437291492029 -0.064882838071203694 -0.076881894402770212 0.069737432399840163 -0.10312441880641232 -0.099424978484452753 -0.076814487264621811 0.11499852763074808 -0.077992342118480926 0.050571196827473235 0.07399988150438995 0.089693695690613098 0.11718053667197055 -0.0711727465640732 0.13253985116138076 -0.11578741743097141 -0.068567283644930047 -0.00038931844128319585 0.095070809778736137 0.054465865071972236 0.22087571940086537 0.063904864392583291 -0.051978867980710525
leaf_weight=281.86092591285706 2409.7551925480366 21140.329751431942 1195.4618771076202 4201.0910247713327 523.72551243007183 3332.7804678529501 755.0122104883194 5526.5213851779699 3112.554927021265 1507.6311767846346 9343.2280632704496 3965.8753494918346 2369.113328024745 687.65715529024601 448.34759482741356 719.78488686680794 2975.1812128722668 1766.9938490241766 531.61754290759563 10431.288856476545 1420.9554261416197 702.75004655122757 468.42197225987911 7912.958642154932 3320.6894072294235 13267.049971655011 4864.8306648433208 122.48058559000492 6443.0808328688145 1281.5151651203632
leaf_count=1244 10656 122618 6218 22922 2528 16793 4249 27393 14172 6962 44032 19180 12215 3794 1966 3426 13892 8555 2735 60185 6574 3678 2026 37595 14812 70400 23217 619 29281 6063
internal_value=0 -0.0528668 0.0426832 0.00950951 0.0735637 -0.0023728 -0.0812857 -0.00514978 0.019776 -0.0474142 0.0387888 -0.0225695 0.000642624 -0.089657 -0.0809699 0.0830264 0.00770698 0.0215309 -0.0952335 0.0868428 0.0250319 0.028999 0.0440359 -0.0586042 0.051349 0.0898655 0.0751885 -0.0836798 0.0551683 0.0322721
internal_weight=0 52350.2 64680.3 31182.4 33498 18852.9 33497.3 26981.3 16971.9 10009.3 13859.4 15520.1 11105.9 30975.3 4414.22 31088.2 4482.81 2522.01 29584.9 30368.4 8614.32 1390.41 7193.36 8444.58 12663.9 29844.7 19413.4 2491.59 6724.94 6146.35
internal_count=600000 273122 326878 150403 176475 89898 183224 127481 79234 48247 65062 73105 51959 170420 21146 165819 20854 12804 162948 162393 39125 7472 32551 40330 58844 159865 99680 12834 30525 29280
is_linear=0
shrinkage=0.1


Tree=11
num_leaves=31
num_cat=0
split_feature=231 32 106 95 98 32 105 69 63 245 68 27 48 18 22 89 120 128 65 85 251 1 47 188 255 73 6 86 123 111
split_gain=22838.6 6872.29 6632.76 4644.68 3816.02 3795.7 2640.48 2210.2 1930.75 1913.45 1855.22 1687.76 1651.61 1640.91 1624.24 1713.42 1611.15 1526.17 1511.23 1896.73 1346.86 1297.28 1237.82 1160.26 1157.76 1151.53 1109.22 1092.06 975.741 1691.28
threshold=0.00051541317928357675 0.0034521047673695998 0.0014331969556669931 0.0037611595700177522 0.0015540082773891726 0.0049480844836006432 0.0038660452745824347 0.012002330764414716 0.00088146718961519533 0.0067248051827263414 0.0039322938928306834 0.0010184208178094835 0.0040472681624092169 0.002439128178493974 0.010620410766895143 0.0012960864348807615 0.0017671248929213715 0.0049957980192463242 0.0061383578398415102 0.007448519172573124 0.002132032302048351 0.004755600485228508 0.0039420814664068845 0.0016572594115693846 0.052074634655578912 0.0030793105540228636 0.0033715822875829715 0.0030762599362219229 0.0018767534572668003 0.0059547374261281127
decision_type=2 2 2 2 2 2 2 2 2 2 2 2 2 2 2 2 2 2 2 2 2 2 2 2 2 2 2 2 2 2
left_child=5 16 7 4 11 8 -6 9 13 -3 26 -4 25 -1 15 -7 24 -13 19 28 -10 -17 -23 -9 -2 -12 -5 -20 -8 -30
right_child=1 2 3 10 6 14 18 23 20 -11 12 17 -14 -15 -16 21 -18 -19 27 -21 -22 22 -24 -25 -26 -27 -28 -29 29 -31
leaf_value=0.047630087093774531 0.06872723269969129 -0.096532806155022174 -0.056998171824159588 0.036050218129824417 0.095881967462481704 -0.10822343533983139 0.06528222080734826 -0.12790194318133261 -0.086085743759754377 0.099331531934279904 -0.062581315390193279 0.056039691080810056 -0.039098768597698397 -0.08495343523490026 0.093968462294774846 0.08583131198024252 0.10181487346665025 -0.081113158164102611 -0.054289711421311518 -0.12863241620869134 0.056073624010634274 -0.073872001711814253 0.091810209744853002 0.13169312996800461 -0.069590844384269879 0.077570028129370749 -0.078038016378779246 0.11264523152866926 0.031498279675355366 -0.099991335037909468
leaf_weight=4891.9763243049383 1569.2765289098024 7232.3692399412394 4018.9371029138565 1013.611362606287 14334.230546534061 16539.301518261433 4034.4001232981682 220.67177881300449 4020.5540706962347 535.7228736281395 701.51798185706139 4171.5053431391716 3370.7972685992718 1153.6112876683474 493.28559656441212 620.0413194000721 13868.752120599151 1007.219101563096 449.46482902765274 841.27069137990475 798.87699668109417 7714.6289432942867 478.92042106389999 783.38165327906609 984.96734382212162 3567.7597214132547 5351.2248964905739 3058.7214737385511 4121.3153478503227 1282.6518232822418
leaf_count=22787 7946 40762 17946 4636 82362 104435 18884 1106 19027 2683 3089 18903 15753 6266 2390 3137 79571 4385 2215 3859 3371 39965 2170 3663 4345 16695 25075 16912 19809 5853
internal_value=0 0.0310457 0.0153794 0.0291139 0.0475422 -0.0649014 0.0658296 -0.064979 -0.0153073 -0.0830251 -0.0199932 -0.00837179 0.013227 0.0223307 -0.0857494 -0.0892461 0.0883732 0.0293646 0.0345863 0.0152457 -0.0625212 -0.0536338 -0.0641877 0.0746391 0.015389 0.0545407 -0.0598693 0.0912577 0.02807 0.000288728
internal_weight=0 76519.8 60096.8 51324.6 37319.7 36711.2 28122.1 8772.15 10865 7768.09 14004.9 9197.66 7640.07 6045.59 25846.2 25352.9 16423 5178.72 13787.8 10279.6 4819.43 8813.59 8193.55 1004.05 2554.24 4269.28 6364.84 3508.19 9438.37 5403.97
internal_count=600000 396452 304590 256376 191128 203548 149894 48214 51451 43445 65248 41234 35537 29053 152097 149707 91862 23288 67532 48405 22398 45272 42135 4769 12291 19784 29711 19127 44546 25662
is_linear=0
shrinkage=0.1


Tree=12
num_leaves=31
num_cat=0
split_feature=245 32 54 106 114 63 118 83 68 160 49 69 19 42 255 190 74 111 111 240 93 113 95 89 114 128 104 199 77 6
split_gain=19580.5 5674.3 5437.09 4420.02 3492.7 3265.7 3075.67 2195.77 2834.34 2034.91 1974.95 1702.21 1676.94 1558.22 1374.92 1367.09 1342.81 1264.15 1205.9 1150.06 1085.24 1479.38 1078.76 1156.67 2125.75 975.59 1010.42 974.766 958.045 954.034
threshold=0.00058401051695499936 0.0034521047673695998 0.0040898336103328157 0.0014331969556669931 0.0045700697293488456 0.0039058075866287207 0.0013006551468284003 0.0038021728252268482 0.0039502397701338043 0.0011347306637217679 0.0066997818463253233 0.012324817074930728 0.0079314751468769346 0.0029839105091647826 0.16648166858571098 0.00063190813126173665 0.0019585013726629618 0.0040377205320043024 0.0075447146571742014 0.0035140073842326821 0.0026506816549915131 0.002612210844581023 0.0038977477266592116 0.00048833569247045316 0.0002961345951977241 0.0024840578590644923 0.004312159947279637 0.014162314416577948 0.0060106994661263584 0.0038562658869560986
decision_type=2 2 2 2 2 2 2 2 2 2 2 2 2 2 2 2 2 2 2 2 2 2 2 2 2 2 2 2 2 2
left_child=4 14 3 11 9 6 -5 18 29 22 12 -3 15 -14 19 -6 -10 -7 28 -2 21 -12 23 24 -1 -25 -27 -11 -8 -9
right_child=1 2 -4 5 10 17 7 8 16 27 20 -13 13 -15 -16 -17 -18 -19 -20 -21 -22 -23 -24 25 -26 26 -28 -29 -30 -31
leaf_value=0.1050793508730949 0.10198074151058041 -0.089718902886418095 0.098667077765731484 -0.068315847842320795 -0.10833689838335776 0.0076355158632819336 0.080601768677831129 0.00026343284565108585 -0.00087394450540571758 -0.080524976738373916 -0.097055389050613658 0.073682600915597848 0.11555758131660537 -0.10201116774469061 -0.081612930017187349 -0.052186210671490568 0.069255126318405066 -0.086898580249499813 -0.0396992465581796 0.029617713320497931 0.11503031430817511 0.10809475406450003 -0.11091490944148424 0.11346660313780479 -0.097069768405375734 -0.062776268142684388 0.083669828807273652 0.089457445013422857 -0.006137781648802485 -0.073254234788368885
leaf_weight=819.58707155287266 12410.906538248062 5896.9823359549046 6923.1694736480713 3103.2978672981262 16712.330161243677 2237.8952815979719 12607.526066526771 3468.5530552715063 4353.9931175112724 3900.22840090096 1157.1461586356163 714.80855792760849 760.16222402453423 580.60912479460239 486.57913906872272 5855.0838116407394 7321.834820702672 3844.8949249237776 1041.2388845831156 2668.5117122083902 682.51915322244167 504.87383006513119 558.04166531562805 2098.2600349634886 1424.0537745654583 893.82304064929485 996.26659128069878 369.30271175503731 1416.4194919168949 3594.2637446969748
leaf_count=4247 75544 33700 42952 14747 108231 10735 69657 15609 19539 20797 6934 3517 4151 3525 2107 30928 36268 19581 4716 13588 3124 2539 2889 9937 7241 4301 4476 1752 6413 16255
internal_value=0 0.0303741 0.0156515 0.00406462 -0.0588662 0.0157715 0.0269607 0.0357074 0.0128552 -0.0117279 -0.0787242 -0.0720534 -0.0873133 0.0213414 0.0838364 -0.0937687 0.0431035 -0.0521189 0.0641319 0.0891751 0.00886201 -0.0347367 0.022286 0.0342135 -0.023226 0.066526 0.0144155 -0.065822 0.0718411 -0.0371497
internal_weight=0 72090.9 56524.9 49601.7 37312.3 42989.9 36907.1 33803.8 18738.6 11059.6 26252.7 6611.79 23908.2 1340.77 15566 22567.4 11675.8 6082.79 15065.2 15079.4 2344.54 1662.02 6790.03 6231.99 2243.64 3988.35 1890.09 4269.53 14023.9 7062.82
internal_count=600000 384928 293689 250737 215072 213520 183204 168457 87671 55640 159432 37217 146835 7676 91239 139159 55807 30316 80786 89132 12597 9473 33091 30202 11488 18714 8777 22549 76070 31864
is_linear=0
shrinkage=0.1


Tree=13
num_leaves=31
num_cat=0
split_feature=159 116 32 69 89 96 16 113 111 204 128 98 104 240 154 93 1 222 49 159 128 47 68 21 209 128 251 76 252 210
split_gain=16771.4 5833.16 3981.75 4389.24 3062.42 2763.01 2619.44 2427.4 2241.38 2477.99 2141.53 1935.52 1792.95 1650.07 1633.69 1522.78 1384.32 1370.27 1354.91 1329.06 1326.54 1228.22 1227.51 1191.4 1167.55 1158.14 1141.78 1022.3 1016.88 910.188
threshold=0.00062470939821571863 0.0058682081826057783 0.0034865811720823018 0.0045410411169386228 0.0016617549010733035 0.0041200013087045609 0.021139049369747902 0.00053616139808560198 0.0072140608207229865 0.004169408951590666 0.0015402278346697141 0.00079907794397297285 0.0042072660117852189 0.0037349602336470018 0.0012172062226376661 0.0052730472595329406 0.013949586618812515 0.0018042794566288857 0.00079449585735085761 0.0038703873239950936 0.0040312347321651261 0.0018799049101668197 0.0042317718096127133 0.0033105385225919329 0.00069077924834612706 0.0049957980192463242 0.0029193258859251886 0.00055838095210062092 0.0021858344157135866 0.0018710231452893141
decision_type=2 2 2 2 2 2 2 2 2 2 2 2 2 2 2 2 2 2 2 2 2 2 2 2 2 2 2 2 2 2
left_child=1 7 18 8 14 11 12 10 9 19 -1 26 -6 16 15 -3 -13 -16 -2 20 -4 24 23 -15 -14 -9 -5 -10 -18 -17
right_child=2 4 3 5 6 -7 -8 25 27 -11 -12 13 21 22 17 29 28 -19 -20 -21 -22 -23 -24 -25 -26 -27 -28 -29 -30 -31
leaf_value=0.039533726086488502 -0.082049335971713308 -0.098717429976197341 0.063236566322033852 -0.1182547590291045 -0.065246410318897358 0.10803285832709558 -0.11481587555842854 0.096867053094483846 0.11611353049728759 -0.076229435582988961 -0.091071725294101652 0.082028107234082395 -0.064631775600161867 0.031026492250883345 -0.057697173923697567 -0.08729527218827024 -0.071863482135404971 0.17684935448632105 0.08873029586791259 -0.047415995442317081 -0.01360897928317936 0.1014660342177981 0.045845564350356451 -0.072203838507213888 0.030335453860001652 -0.0829896135548676 0.13770684268271494 -0.097110887570677859 0.052066249776881013 0.11202991734247725
leaf_weight=2652.3617249429226 481.87103682756424 20345.964689463377 6682.1504861563444 1231.9782628268003 3460.8597970604897 5776.5997950285673 2732.4025024920702 3871.2718711346388 239.7788573205471 3257.5200739204884 2383.7875793427229 8837.4637259244919 1861.3695766031742 1890.2331974804401 627.69207309186459 386.43304847180843 1133.8369581997395 412.9596744030714 12929.853740163147 2262.6516397297382 3384.0162281543016 1535.193639472127 3954.4645512551069 2736.5911832004786 4251.4036655128002 394.50568762421608 202.98839507997036 3612.8576174378395 1591.3343644291162 562.64556470513344
leaf_count=13362 2200 135632 34881 6367 18448 39617 13693 21508 1462 17210 13178 48180 9508 8707 3928 1939 6559 2222 81591 11144 16744 7385 18956 12989 19065 2259 857 19957 7804 2648
internal_value=0 -0.0458996 0.0345578 0.0207901 -0.0640597 0.0466075 -0.0271 0.0247283 -0.0155413 0.00134082 -0.0222865 0.0301642 -0.0055248 0.0381576 -0.0869633 -0.0929419 0.0628139 0.0353774 0.0825943 0.0218364 0.0374028 0.0215004 0.00493511 -0.0300303 0.00141746 0.0802336 -0.0820468 -0.0838403 0.000503946 0.0308714
internal_weight=0 45478.9 60206.2 46794.5 36176.9 27355.5 13841.2 9301.93 19439 15586.3 5036.15 21578.9 11108.8 20143.9 22335.7 21295 11562.6 1040.65 13411.7 12328.8 10066.2 7647.97 8581.29 4626.82 6112.77 4265.78 1434.97 3852.64 2725.17 949.079
internal_count=600000 264775 335225 251434 214468 150036 68099 50307 101398 79979 26540 110419 54406 103195 146369 140219 62543 6150 83791 62769 51625 35958 40652 21696 28573 23767 7224 21419 14363 4587
is_linear=0
shrinkage=0.1


Tree=14
num_leaves=31
num_cat=0
split_feature=231 195 111 139 32 244 206 46 208 77 255 236 63 90 15 106 128 244 175 79 160 87 128 105 16 95 46 134 222 154
split_gain=14438.1 4671.8 5476.67 3525.28 2831.32 2179.49 2301.13 2571.07 2074.54 1923.71 1837.44 1535.4 1453.84 1545.77 1360.94 1349.94 1330.73 2656.9 1237.03 1206.34 1188.03 1194.23 1136.87 1444.44 1068.44 1046.67 1181.25 972.202 956.32 978.057
threshold=0.00051541317928357675 0.003856163107121701 0.0084293838430411824 0.02295236338444329 0.0049480844836006432 0.0017572408636415888 0.0026893373580101909 0.0041211181460312106 0.0061951256156191374 0.0042396126299842456 0.1403573089841485 0.0038657758924851445 0.002153527031147824 0.0017958248252982732 0.013231757350368996 0.0013951062102476562 0.0043020000229263148 0.00368771166069404 0.0014483763340904278 0.0011161080667248188 0.0010986525353332193 0.0015191337341292621 0.0045815903131695883 0.0040675040376395907 0.024212223528585184 0.0045073289137620197 0.0016375843638744812 0.0034684989135123552 0.0018534501546208888 0.0010492886900765441
decision_type=2 2 2 2 2 2 2 2 2 2 2 2 2 2 2 2 2 2 2 2 2 2 2 2 2 2 2 2 2 2
left_child=4 2 3 10 12 -3 14 11 18 -4 16 -8 13 19 22 28 -2 -18 -5 -1 21 -17 24 -24 -7 26 -23 -11 -6 -30
right_child=1 5 9 8 15 6 7 -9 -10 27 -12 -13 -14 -15 -16 20 17 -19 -20 -21 -22 25 23 -25 -26 -27 -28 -29 29 -31
leaf_value=0.014745134747267586 0.085124495406307843 -0.081388354500983071 -0.074915745603463993 -0.080391971351566116 -0.10209640071160508 0.0789503729860771 0.0069291141321831898 0.11723862292292286 0.11259881024177876 0.074029647016474159 -0.052606074112102545 -0.085227831229971893 -0.085968048087590565 0.10345281241858091 -0.097532910988124277 -0.099065812650572391 -0.011240885192977538 0.09795470627508697 0.065417000115344848 -0.079017024650375967 -0.090889778375426167 -0.042021229572036072 0.053557353258625651 -0.081295806149883021 -0.082228290013573041 -0.082405477813792344 0.077224864521432318 -0.11556717017309076 -0.095356012432665574 0.19710909382060893
leaf_weight=4779.6745670214295 24900.055983826518 3704.002514116466 4690.0155595839024 3205.3179167807102 12089.108914151788 6077.473032951355 2754.0836600959301 990.14180584251881 924.79522316157818 1645.2903247624636 1201.377074174583 5262.0187293440104 2079.3576018661261 1397.1523530557752 730.47631615400314 1433.5507019385695 4734.1994914934039 4209.6019785106182 710.89514125883579 1924.7696347385645 3805.6334403604269 1344.5578925684094 1847.209450468421 1393.4721752256155 441.12982398271561 1043.0773058086634 2173.7080277279019 323.65780049562454 238.09237571060658 220.0007112249732
leaf_count=22991 154079 21317 26474 16458 94195 29532 13465 4830 6733 9564 5670 27001 10858 6959 3392 9563 25109 30595 3557 10643 21237 6896 8344 6441 2049 5975 11460 1842 1768 1003
internal_value=0 0.025589 0.0438613 0.0578769 -0.0550876 -0.0110698 0.0022899 -0.0347874 -0.0221124 -0.0400903 0.0689263 -0.0535656 -0.0113773 0.0077672 0.0341236 -0.0750006 0.0732404 0.0401545 -0.0539238 -0.0121729 -0.0471913 -0.019451 0.043978 -0.00442863 0.068043 0.00557052 0.0316532 0.0428635 -0.0967223 0.0451013
internal_weight=0 69745.2 46545.2 39886.2 32528.7 23200 19496 9006.24 4841.01 6658.96 35045.2 8016.1 10181 8101.6 10489.8 22347.7 33843.9 8943.8 3916.21 6704.44 9800.53 5994.89 9759.28 3240.68 6518.6 4561.34 3518.27 1968.95 12547.2 458.093
internal_count=600000 396452 280081 242201 203548 116371 95054 45296 26748 37880 215453 40466 51451 40593 49758 152097 209783 55704 20015 33634 55131 33894 46366 14785 31581 24331 18356 11406 96966 2771
is_linear=0
shrinkage=0.1


Tree=15
num_leaves=31
num_cat=0
split_feature=245 32 54 106 114 63 118 106 119 78 63 89 40 120 120 69 68 83 67 60 240 204 137 255 159 200 89 111 182 49
split_gain=12478.8 3976.4 3899.54 3000.87 2685.15 2306.65 2099.71 1751.3 1760.93 1667.5 1665.33 1920.51 1517.09 1319.29 1277.32 1255.64 1162.96 1348.38 1023.52 997.81 945.081 881.073 866.755 826.899 807.599 804.886 1371.47 792.64 745.301 733.659
threshold=0.00058401051695499936 0.0034521047673695998 0.0040898336103328157 0.0014331969556669931 0.0045700697293488456 0.0039058075866287207 0.0013006551468284003 0.00060103266348633503 0.0016096585124455714 0.0027043475321831809 0.0011291591249060892 0.0021252939023757565 0.0020568224178511237 0.0017671248929213715 0.0017992016326291679 0.011864960899555745 0.0039502397701338043 0.0038021728252268482 0.0047898300767509 0.0018377017729591558 0.0035140073842326821 0.021335528883905473 1.0000000180025095e-35 0.052868968022581779 0.0022032444102262996 1.0158019063295986e-05 0.00029767131433349928 0.004026102074161029 0.0011858022604705821 0.0010516909727521708
decision_type=2 2 2 2 2 2 2 2 2 2 2 2 2 2 2 2 2 2 2 2 2 2 2 2 2 2 2 2 2 2
left_child=4 13 3 15 12 6 -5 -6 24 -10 29 19 21 23 -11 -3 17 -13 27 -12 -15 22 -1 -2 -9 -24 -27 -7 -18 -8
right_child=1 2 -4 5 7 18 10 8 9 14 11 16 -14 20 -16 -17 28 -19 -20 -21 -22 -23 25 -25 -26 26 -28 -29 -30 -31
leaf_value=-0.15282637789446157 0.055086687113448267 -0.08063257929844582 0.088826289839324182 -0.059070321097705596 -0.11269595002218724 -0.0080625219471926659 -0.01576891993154619 -0.086972344942433055 -0.052970061031515317 -0.10080744711387762 0.025449479131360316 0.047397336343063493 -0.070252411756945549 0.10087950362747218 0.077232809166882466 0.061989892021870878 -0.031619277073104295 -0.029839670053795155 0.068239034701391435 -0.076576935758191758 0.025556041778091738 -0.090136424637120474 0.12265510493040262 -0.065266574081887435 0.077852989090206229 -0.091869581840528555 0.041695502475167311 -0.091205273904004028 0.057861988938835297 0.092845137652988741
leaf_weight=258.55186507850885 1370.9957671090961 5217.5841570571065 5937.5147266238928 2911.8235259577632 6620.7072216942906 1768.0142226666212 712.25633990764618 8618.7739055231214 4420.2805716171861 489.04152146726847 1446.7205102965236 4019.2865871861577 2833.5085684880614 9265.094470217824 2289.3008041232824 700.11960358917713 1011.698720023036 5164.663021877408 685.83859877288342 2840.8723636269569 2030.8689410015941 712.65939524024725 882.75728014111519 978.1703155040741 307.88702790439129 918.09358501434326 4726.8565015569329 3262.5745240151882 11644.040669977665 4902.44970472157
leaf_count=1423 7908 33552 42952 14747 56198 8572 3251 57620 27603 3474 7507 22176 17646 67491 12588 3665 4548 23821 3496 13860 11378 3740 5174 4462 1949 4872 22785 18248 63019 30275
internal_value=0 0.0250898 0.0125311 0.00274441 -0.0501891 0.0124929 0.0222012 -0.0693918 -0.051612 -0.0148129 0.0296566 0.0190384 -0.00791609 0.0731573 0.0458943 -0.063759 0.0310513 0.00396253 -0.0463607 -0.0421512 0.0873373 0.015638 0.0267459 0.00497274 -0.0812874 0.0338585 0.0199725 -0.0619845 0.0507089 0.0790668
internal_weight=0 65870.6 52225.5 46287.9 33078.4 40370.2 34653.8 22746 16125.3 7198.62 31742 26127.3 10332.4 13645.1 2778.34 5917.7 21839.7 9183.95 5716.43 4287.59 11296 7498.92 6786.26 2349.17 8926.66 6527.71 5644.95 5030.59 12655.7 5614.71
internal_count=600000 384928 293689 250737 215072 213520 183204 159432 103234 43665 168457 134931 55640 91239 16062 37217 113564 45997 30316 21367 78869 37994 34254 12370 59569 32831 27657 26820 67567 33526
is_linear=0
shrinkage=0.1


Tree=16
num_leaves=31
num_cat=0
split_feature=238 195 114 111 98 128 15 248 69 46 49 16 147 255 204 222 206 240 32 106 111 64 128 108 137 233 255 154 93 64
split_gain=10816.5 4043.37 3529.92 3501.73 3114.6 1911.49 1823.38 1826.38 1720.61 1694.77 1351.22 1281.19 1358.67 2383.18 1263.82 1237.81 1208.19 1117.02 1865.82 1108.79 1036.7 1052.61 1010.26 972.99 963.59 961.445 916.833 915.434 891.15 849.839
threshold=0.00057438286401892229 0.0037696003148561825 0.0045700697293488456 0.009018741557520053 0.0008905167918657771 0.0029543888192480215 0.013231757350368996 0.0044064419031052664 0.0053794787179593708 0.0043247922763792407 0.0068468833959172033 0.014159607619382024 0.00083707692802133412 0.034927466047482224 0.0033541623992899088 0.0018454395999874089 0.0014699033904555152 0.0038746097557378167 0.0041958051602584761 0.00092130604391077876 0.0044752712078701823 0.011863020951820459 0.0044701888186075124 0.004137708673358575 1.0000000180025095e-35 0.0018512181616793437 0.12848911581036765 0.0010492886900765441 0.0031235185851989458 0.006561487156997778
decision_type=2 2 2 2 2 2 2 2 2 2 2 2 2 2 2 2 2 2 2 2 2 2 2 2 2 2 2 2 2 2
left_child=2 3 5 4 25 14 7 9 -5 17 15 12 19 22 24 -4 -15 18 -3 -6 -9 29 -14 -11 -1 -2 -26 -17 -12 -22
right_child=1 6 10 8 11 -7 -8 20 -10 23 28 -13 13 16 -16 27 -18 -19 -20 -21 21 -23 -24 -25 26 -27 -28 -29 -30 -31
leaf_value=-0.14692827238049858 0.027803629717739132 0.063494354100441158 -0.086139104659901405 -0.079629158890841961 -0.048339667829972371 -0.052353170258559747 -0.1034725102758266 0.060537896500598515 0.044486936317169448 0.12394432049801954 -0.034131178929061631 -0.050216449889822649 0.083594558139649722 0.045285103475624311 -0.05288988796530604 -0.071270960072582698 -0.048845545320141251 -0.066086705697281173 -0.047780984838859626 0.10196319128039533 0.015195611029515235 0.076875779211630968 0.01691896160205662 -0.086598326408304366 0.078576118474265849 -0.097376362010677536 -0.11770869275390179 0.14990850257423624 0.11787923868389283 -0.10361209267666577
leaf_weight=218.71004674583673 977.33413452655077 2405.0471889227629 17911.23315025866 3192.1576102152467 515.49034480005503 4289.5673240125179 1870.4536445066333 5629.7015149816871 1718.0844938084483 1098.3204221650958 1468.8306830227375 978.75375804305077 12399.452851809561 2526.7258780822158 1299.8554745540023 356.11258355528116 2962.011127397418 6041.1246763840318 4034.8424850255251 10251.430744163692 1185.4465133473277 1000.6364525258541 2782.4051724150777 274.31864324212074 4368.0113296732306 1648.3977663144469 251.67839429527521 394.34483055770397 522.97249367088079 1223.4336567446589
leaf_count=1234 5236 12858 136530 19289 3178 24726 11094 28648 9558 5946 9715 5079 83455 14250 7211 2614 16089 31275 21916 76095 5862 5066 15625 1448 25192 8849 1198 2260 2578 5926
internal_value=0 0.0232084 -0.0485651 0.0428874 0.0539696 -0.00113731 -0.00854083 -0.000784469 -0.0362012 -0.0235999 -0.0725111 0.0624546 0.0659624 0.0509586 0.0346536 -0.0808674 -0.00551274 -0.0351991 -0.00622399 0.0947671 0.0341828 -0.00933394 0.0713748 0.0818679 0.0581725 -0.0507826 0.0678826 0.0449528 0.00578103 -0.045145
internal_weight=0 64715.6 31081.3 39952.2 35042 10427.8 24763.3 22892.9 4910.24 13853.7 20653.5 32416.3 31437.5 20670.6 6138.26 18661.7 5488.74 12481 6439.89 10766.9 9039.22 3409.52 15181.9 1372.64 4838.4 2625.73 4619.69 750.457 1991.8 2408.88
internal_count=600000 386742 213258 256703 227856 59561 130039 118945 28847 73443 153697 213771 208692 129419 34835 141404 30339 66049 34774 79273 45502 16854 99080 7394 27624 14085 26390 4874 12293 11788
is_linear=0
shrinkage=0.1


Tree=17
num_leaves=31
num_cat=0
split_feature=106 16 95 47 93 114 147 32 69 201 144 111 77 106 244 34 177 245 134 217 118 63 243 89 255 233 53 8 63 32
split_gain=9688.89 5594.02 4230.84 3748.99 3058.42 2423.68 2018.08 1986.48 1980.5 1535.53 1483.27 1436.87 2124.64 1401.72 1179.27 1131.5 1119 1083.85 905.876 897.067 855.32 855.294 874.908 843.486 835.312 831.517 816.957 772.667 1142.68 750.98
threshold=0.0012533684281962403 0.014159607619382024 0.0036995588504359351 0.00077098229857150175 0.0029053071457827576 0.0015580913143419326 0.00085495661112558626 0.0038700971122518713 0.014264714777410091 0.0028030635191280549 0.0022038049475961263 0.0049115162647270982 0.004003157480285408 0.0026780481140058162 0.0021225097658983546 0.0039358088659984386 0.0039718906537882298 0.0046772444349736609 0.0018187755315252072 0.0016771585503704489 0.0017233677420544001 0.0038672636518047219 0.00075763101925696292 0.00052845811957080724 0.038137821275116578 0.0030752811804858017 0.0058954820482940143 0.009882354055045289 1.0000000180025095e-35 0.0048264865464095813
decision_type=2 2 2 2 2 2 2 2 2 2 2 2 2 2 2 2 2 2 2 2 2 2 2 2 2 2 2 2 2 2
left_child=4 2 3 11 5 27 23 24 15 -3 -10 12 19 18 -6 16 21 -7 -9 -2 -14 22 -4 -5 -8 -15 -13 28 -1 -11
right_child=1 9 8 6 14 17 7 13 10 29 -12 26 20 25 -16 -17 -18 -19 -20 -21 -22 -23 -24 -25 -26 -27 -28 -29 -30 -31
leaf_value=0.10965866659227477 0.075136395268495346 -0.0905317247712914 -0.083902052597529808 -0.065835398228881126 -0.063697030517088943 -0.091796986060710073 0.096687854049906 0.014608102823861319 -0.084144817672714187 0.096290873677321087 0.10717672192443571 -0.082369811185274616 -0.074591976124378484 0.064153491482278321 0.1173531060756937 0.043878034179444712 0.082890972050670753 0.05025372622021821 -0.088690767426813477 -0.093391898260440642 0.019206628518729483 -0.080497376232007617 -0.009701636624133694 0.095892615261682607 0.0085571347791279177 0.010070134419031811 0.10755583397343982 0.11289293450392777 -0.056719581592162095 -0.047073430053489712
leaf_weight=555.48171979188919 4077.987655736506 5657.2460196018219 2038.9415365159512 331.40613748878241 503.65971606969833 15611.300008840859 6492.2496933713555 1708.4051292687654 507.18032258749008 729.13864004611969 2015.7332555055618 2734.4689358100295 2489.1837067604065 5557.1907053440809 1259.2248037755489 1999.860680475831 744.23757803440094 556.27432489395142 1687.4883297234774 342.36587318778038 1595.142995685339 4199.6238836497068 7202.5982400774956 11977.658555135131 1288.9840564727783 5820.0210899412632 246.93328610062599 616.94433682411909 1607.0014862418175 732.39437146484852
leaf_count=3645 22030 31551 13207 2239 3098 133706 51582 9181 2632 3446 11271 16393 13546 33676 7143 10791 4479 2982 9215 1653 8023 23828 36775 88194 7598 30737 1512 3998 8202 3667
internal_value=0 0.0172356 0.0264447 0.0426463 -0.0603581 -0.0720801 0.0589706 0.0411967 -0.0136947 -0.0669254 0.0687154 -0.00690255 0.0140388 0.0196583 0.0656267 -0.0265406 -0.0364682 -0.0869095 -0.0367232 0.0620835 -0.0379587 -0.0430772 -0.0260723 0.0915383 0.0820887 0.0364871 -0.0666393 0.0141805 -0.0139816 0.024449
internal_weight=0 72176.4 65057.7 46349.5 20709.9 18947 34863.4 22554.3 18708.2 7118.78 2522.91 11486.1 8504.68 14773.1 1762.88 16185.3 14185.4 16167.6 3395.89 4420.35 4084.33 13441.2 9241.54 12309.1 7781.23 11377.2 2981.4 2779.43 2162.48 1461.53
internal_count=600000 437226 398562 295579 162774 152533 232422 141989 102983 38664 13903 63157 45252 82809 10241 89080 78289 136688 18396 23683 21569 73810 49982 90433 59180 64413 17905 15845 11847 7113
is_linear=0
shrinkage=0.1


Tree=18
num_leaves=31
num_cat=0
split_feature=106 16 95 47 93 114 147 1 69 138 253 195 50 111 67 89 32 244 81 206 32 34 92 222 214 63 159 43 19 198
split_gain=8284.47 4685.82 3561.25 3135.78 2632.29 2201.41 1852.38 1957.75 1707.68 1355.15 1326.67 1320.57 1289.09 1325.69 1542.64 1167.71 1037.99 977.373 920.854 909.568 1395.39 903.452 849.831 825.163 843.191 820.451 1015.12 803.8 743.957 679.002
threshold=0.0012533684281962403 0.014159607619382024 0.003746922965782495 0.00077098229857150175 0.0029411674737436088 0.0039570201139595982 0.00085495661112558626 0.0048289884928434347 0.014264714777410091 0.0014135076969527375 0.0017952616830060975 0.0016479913207267454 0.0037093227673523519 0.0049115162647270982 0.0038100814478544756 0.0021252939023757565 0.0049480844836006432 0.0021225097658983546 0.0019886819351550215 0.0026893373580101909 0.0043366228200165426 0.0039358088659984386 0.001784814965648603 0.0018534501546208888 0.008214202853029224 0.0038672636518047219 0.00053651179814102141 0.0040365292109821324 0.0074472585994545494 1.0000000180025095e-35
decision_type=2 2 2 2 2 2 2 2 2 2 2 2 2 2 2 2 2 2 2 2 2 2 2 2 2 2 2 2 2 2
left_child=4 2 3 12 5 11 22 -8 21 -3 -10 29 13 14 18 -9 -11 -6 -2 -17 -21 25 -5 24 -7 26 -4 -22 -25 -1
right_child=1 9 8 6 17 23 7 15 10 16 -12 -13 -14 -15 -16 19 -18 -19 -20 20 27 -23 -24 28 -26 -27 -28 -29 -30 -31
leaf_value=-0.13858526998586618 0.030580623460457475 -0.10110226581515241 -0.071564911028412101 0.050161361110343167 -0.05769578721171046 -0.10050399111498363 0.081374604235894613 -0.030382794888086945 -0.087103747822514954 0.064177240624158013 0.10113969291297542 -0.084172232093652877 0.081286120151729535 -0.084561578669125573 0.071550182598263151 0.053346685798449214 -0.057333712900198452 0.11154948304401043 -0.057801423705973812 0.061333979739789025 -0.079536249151668306 0.039195826120358941 0.10600786195860111 -0.068845822647992133 0.31234068858764408 -0.072846515108127008 0.0023980865091397146 0.083459175825293525 0.14852137543442553 0.02882622312621308
leaf_weight=260.27656988054514 1773.9107049331069 3903.0390631854534 2607.6441351994872 4240.3576004952192 479.18450698256493 11544.021686956286 6994.7083471491933 3811.6510978788137 464.94634164869785 1125.7944393083453 1922.2450691461563 1949.0819418802857 1453.9924390390515 2381.2181445732713 2196.3037960156798 7800.2413195297122 1872.0062401518226 1185.0718883648515 3514.3153892755508 1824.0139758735895 2012.543725669384 1832.0231356322765 7623.9848983958364 402.88207715004683 49.684115298092365 4103.5453361645341 6434.3644876405597 356.08047215640545 258.47454725205898 3501.9758119508624
leaf_count=1582 9228 23292 16496 22845 3010 112132 54408 21243 2538 5474 11152 14199 9127 14989 11316 46366 9898 7061 18820 12371 10444 9958 67892 3008 272 23816 33370 2183 1341 20169
internal_value=0 0.0159852 0.0245095 0.0390798 -0.0574959 -0.0686409 0.0540027 0.0373268 -0.0140739 -0.0622656 0.0644761 -0.0173655 -0.00661759 -0.0195726 0.00110372 0.0178323 -0.0117015 0.0628192 -0.0281541 0.0331563 -0.00440724 -0.0265936 0.0860481 -0.0925372 -0.0987348 -0.0357623 -0.0189323 -0.0550328 0.0161067 0.0172445
internal_weight=0 70248.9 63348.1 45983.3 19630.7 17966.4 34663.6 22799.2 17364.8 6900.84 2387.19 5711.33 11319.7 9865.75 7484.53 15804.5 2997.8 1664.26 5288.23 11992.9 4192.64 14977.6 11864.3 12255.1 11593.7 13145.6 9042.01 2368.62 661.357 3762.25
internal_count=600000 437226 398562 301232 162774 152703 237752 147015 97330 38664 13690 35950 63480 54353 39364 92607 15372 10071 28048 71364 24998 83640 90737 116753 112404 73682 49866 12627 4349 21751
is_linear=0
shrinkage=0.1


Tree=19
num_leaves=31
num_cat=0
split_feature=239 54 32 223 106 233 176 106 63 92 53 60 48 215 46 100 231 75 1 20 232 89 105 198 93 186 85 152 224 1
split_gain=7206.15 2861.59 3007.01 2391.57 2101.22 1726.94 1604.12 1579.86 1793.66 1313.68 1289.19 1243.27 1055.79 1198.1 1092.68 970.697 897.522 873.377 866.582 851.955 821.382 755.802 1007.38 789.352 746.439 718.081 688.295 682.301 674.637 627.535
threshold=0.00055806789639589608 0.0040898336103328157 0.0039729897594620077 0.0038404196300314106 0.0021085121531343337 0.0025835302718936514 7.5101402877966891e-06 0.00061816999941680464 0.0016787434466170065 0.0014099455437734932 0.0030013341026262018 0.0022506474140576295 0.0026977395364797753 0.00019532945715401983 0.0016375843638744812 0.0028428308899050994 0.003571124640396996 0.0015125291272019325 0.013782086004185378 0.0065988244755741691 0.0017916333064673863 0.0039085000514335567 0.0041225733329899811 0.0033749541527965453 0.0030290732553009477 0.0034862194088762372 0.0043717815063171114 0.0040219321700267268 0.004185121977523752 0.015265976070521084
decision_type=2 2 2 2 2 2 2 2 2 2 2 2 2 2 2 2 2 2 2 2 2 2 2 2 2 2 2 2 2 2
left_child=6 2 3 9 18 11 -1 19 10 17 12 20 13 -9 -15 -7 -5 -2 24 -8 -6 27 -23 -24 28 -14 -13 -17 -4 -3
right_child=1 29 4 16 5 15 7 8 -10 -11 -12 26 25 14 -16 21 -18 -19 -20 -21 -22 22 23 -25 -26 -27 -28 -29 -30 -31
leaf_value=0.083301148363548447 -0.040109717955196106 0.090007852283512421 -0.05300386131285284 0.072884392998303793 -0.069856913916884589 -0.070538909376670456 -0.10088566779375717 -0.086003095003053129 -0.087584611378531768 0.074313339209917603 0.058041596350177166 0.026933421116911826 -0.064148419413212407 -0.013006684844139979 0.10164903913825121 -0.02276586281421146 -0.066329277073978052 0.083487460506954325 -0.073614239389439909 0.092007374208413178 0.083194805398610072 0.05888393409954501 0.040151051876437249 -0.073997302292906464 0.094257720136084619 0.083928944806045569 -0.062050235681755252 0.093220798226763019 0.072385624820678701 -0.038428723572444839
leaf_weight=926.2933551222086 1884.4586597532034 5924.3122770935297 2347.9276854321361 578.30869496613741 375.93388343602419 2296.5082357674837 6090.2553836032748 1038.5792658105493 4766.8776390105486 12377.981107421219 2000.6580765843391 2969.9247099384665 5895.095552675426 1913.9415118023753 1469.2820282950997 10431.386477567255 2324.7804796621203 820.71746119856834 5282.5649612024426 237.91759453713894 5212.7700309827924 3778.789609901607 1088.2258636727929 1366.5390638709068 580.25955978035927 346.75144339352846 1228.9802028462291 533.09669464826584 525.04211717844009 406.52154372632504
leaf_count=6304 9691 54090 14516 3763 1925 12351 61721 8461 32341 97530 12268 16125 46910 10283 8886 55012 13374 5193 40970 1422 35374 18905 5400 7186 3205 2186 6011 3227 3270 2100
internal_value=0 0.0180344 0.0108307 0.0445191 -0.00510733 0.00773344 -0.0458029 -0.0508362 -0.0352992 0.0605167 -0.0156188 0.0420067 -0.0294386 0.00794609 0.0367865 -0.00947413 -0.0385973 -0.00261184 -0.0481492 -0.0936336 0.0728995 -0.00131995 0.026483 -0.023394 -0.00919423 -0.0559223 0.000888737 -0.0171266 -0.0300886 0.0817606
internal_weight=0 62335 56004.2 17986.2 38017.9 29282.2 24685.7 23759.4 17431.2 15083.2 12664.3 9787.61 10663.6 4421.8 3383.22 19494.5 2903.09 2705.18 8735.79 6328.17 5588.7 17198 6233.55 2454.76 3453.23 6241.85 4198.9 10964.5 2872.97 6330.83
internal_count=600000 409218 353028 129551 223477 161516 190782 184478 121335 112414 88994 59435 76726 27630 19169 102081 17137 14884 61961 63143 37299 89730 31491 12586 20991 49096 22136 58239 17786 56190
is_linear=0
shrinkage=0.1


Tree=20
num_leaves=31
num_cat=0
split_feature=190 139 69 114 111 128 248 95 106 15 141 254 255 19 120 253 202 101 103 60 223 87 0 133 139 43 104 8 48 118
split_gain=6332.5 2544.73 3526.8 2448.89 2408.8 2332.68 1763.4 1660.1 1616.77 1469.02 1455.99 1280.62 1106.58 1080.98 1171.53 980.652 942.716 852.741 850.797 849.002 847.549 805.776 705.85 681.852 679.483 648.781 632.535 601.823 589.567 583.844
threshold=0.00057706332459087171 0.022272130893930372 0.0090680688862557878 0.0047433228220051657 0.0039831798695045767 0.0043020000229263148 0.0040394159922487885 0.0037325994748827695 0.0021085121531343337 0.013893749151702267 0.0043561688105899195 0.0045596157176555083 0.091506277867554317 0.0079314751468769346 0.0072022313118487672 0.0011650976505195136 0.00083542415772809011 0.0057170110663806372 0.0015024436815129264 0.0024823071228525077 0.0038570383369243145 0.0012858168986233137 0.038573595811406437 1.0000000180025095e-35 0.041090097985949155 0.001398995316991116 0.0042897337812226903 0.012735180604791929 0.0020039382662581924 0.0018310782702203414
decision_type=2 2 2 2 2 2 2 2 2 2 2 2 2 2 2 2 2 2 2 2 2 2 2 2 2 2 2 2 2 2
left_child=3 2 4 10 5 12 29 8 27 11 23 16 20 14 -5 -4 -8 -14 -13 -10 -2 -15 -21 -1 -18 -12 -9 -6 -27 -3
right_child=1 6 15 13 7 -7 9 26 19 -11 25 18 17 21 -16 -17 24 -19 -20 22 -22 -23 -24 -25 -26 28 -28 -29 -30 -31
leaf_value=-0.1341924957996227 0.074379935255622406 -0.080355059093433157 -0.012293043236826565 -0.086385859572838564 -0.063404051721163326 -0.032539529171799246 -0.073711547341362246 -0.065990803419269661 0.072085301627653461 -0.11105765908725787 -0.086928153197536176 0.080386582614218161 -0.08510397464727007 -0.089288629738559791 0.050035252006476655 0.097425106066951858 0.038783823136909125 0.077737979207302854 -0.0059677868411562116 0.075584179864806839 -0.0066446142239072331 0.095732968934475832 -0.018303776734671422 0.041689998155815366 -0.08694506681422598 0.12716085098062388 0.002561805419701464 0.11451684515204624 -0.040997579296958318 -0.018021918436749051
leaf_weight=231.76154467463493 12285.965347744524 4126.2648143321276 910.13093996793032 12291.664611011744 2660.5474773198366 3580.6789051815867 1867.3020755425096 5332.4907466396689 3678.6605856195092 948.09720804542303 2082.9725545570254 3619.3738309815526 906.25480505079031 371.79113501310349 663.46829978376627 7763.0351436808705 2466.1267704591155 498.44615741819143 1666.1378506273031 1082.5230349227786 1442.6054817438126 641.53317139297724 3076.2180588543415 4502.9915573447943 520.57728751003742 305.3446589037776 1800.4159158468246 204.74464807659388 657.33753513544798 2363.2865002453327
leaf_count=1562 98242 27969 5640 120580 18770 20580 9979 32886 24208 5213 13653 21712 4497 3251 4260 65306 12653 3676 8399 6619 8206 4586 16547 27870 2502 1492 9767 1072 5014 13289
internal_value=0 0.0160342 0.028584 -0.0465758 0.0149802 0.0400425 -0.0162542 -0.0113163 0.01359 0.00797782 -0.00161447 0.0191082 0.0572161 -0.0716192 -0.0793994 0.0859117 -0.0179764 -0.0273209 0.0531653 0.0370904 0.0658658 0.0278481 0.00613532 0.0330807 0.0168695 -0.0555514 -0.0486874 -0.0506904 0.0123391 -0.0576553
internal_weight=0 62799.9 45222.7 21748.9 36549.6 18714 17577.2 17835.6 10702.7 11087.6 7780.41 10139.5 15133.3 13968.5 12955.1 8673.17 4854.01 1404.7 5285.51 7837.4 13728.6 1013.32 4158.74 4734.75 2986.7 3045.65 7132.91 2865.29 962.682 6489.55
internal_count=600000 417732 316016 182268 245070 135201 101716 109869 67216 60458 49591 55245 114621 132677 124840 70946 25134 8173 30111 47374 106448 7837 23166 29432 15155 20159 42653 19842 6506 41258
is_linear=0
shrinkage=0.1


Tree=21
num_leaves=31
num_cat=0
split_feature=106 16 95 92 114 69 124 0 69 144 141 128 132 201 105 32 214 183 240 68 253 186 204 222 37 224 8 16 144 163
split_gain=5624.85 3240.91 2464.7 2702.96 1890.25 1682.65 1643.8 1397.13 1472.61 1209.49 1199.04 1444.75 1265.65 1106.99 1022.88 937.106 907.096 815.609 877.849 993.473 758.916 738.226 693.604 675.52 661.192 641.537 638.601 796.332 623.413 600.305
threshold=0.0010080777675818156 0.014159607619382024 0.0036995588504359351 0.0021323783459226493 0.002119197507323672 0.01437971544062369 0.0015494885026688984 0.06265863913766663 0.0021485362424165828 0.0022038049475961263 0.01089359644375155 0.0045210044789864472 0.0038742348585945161 0.0028030635191280549 0.01291324170007129 0.0038869760702855915 0.0019855427356547288 0.0005425130750114054 0.0039036703161772946 0.0092774596212031341 0.0043619391911286871 0.0034862194088762372 0.0038645740425524754 0.0017753234623384081 0.0015642546835057437 0.00033971512960332924 0.009882354055045289 7.3123554259129354e-05 0.0099532366778733224 0.00080363636985933461
decision_type=2 2 2 2 2 2 2 2 2 2 2 2 2 2 2 2 2 2 2 2 2 2 2 2 2 2 2 2 2 2
left_child=4 2 3 7 26 17 -5 -2 -9 -7 11 14 -13 -3 -10 -8 23 21 19 -19 -12 -4 -20 -6 -14 -18 27 -1 -29 -15
right_child=1 13 5 6 16 9 15 8 10 -11 20 12 24 29 -16 -17 25 18 22 -21 -22 -23 -24 -25 -26 -27 -28 28 -30 -31
leaf_value=0.10168295870820881 0.098511203672542541 -0.076679903795393523 -0.094459370723362079 0.096922204349536759 -0.08903502384793871 -0.080075062161079721 0.074870982795866028 -0.076379669728551702 0.056440926611171782 0.096848042964968475 -0.065909169457547878 -0.05614243488928583 -0.085000310605205395 -0.095699935936365194 -0.058317447231413772 0.020253336485522244 0.29148161717207666 0.016914939068484156 -0.0052485103378739507 -0.11051885553531622 0.043905302047129016 0.10036913627371885 -0.078098268649630015 0.022720125126749827 0.086997417309776059 0.0006164575763163532 0.090792500275282226 -0.062383238874167912 0.11970300961271174 0.059828568005016375
leaf_weight=475.38810414075851 1553.1792953163385 5116.7850960940123 2198.4184116497636 7042.1453627049923 9985.1997870989144 474.91284466534853 4644.9402012005448 2238.4276095479727 8446.1036174371839 2073.1516058593988 2828.8602876588702 3305.5651249438524 274.35067893564701 322.94347947835922 855.3634610325098 9704.8094105795026 93.364468231797218 7491.3209489956498 2349.077336601913 666.17010075598955 809.38524274528027 213.35920719057322 2945.961572535336 571.85940538346767 1205.8967246264219 403.7522059828043 758.32593047618866 1737.1661912538111 210.84937827289104 1071.865267008543
leaf_count=3646 14114 32382 17628 71480 112485 2669 43421 16403 48916 13855 15908 19026 1369 1773 6013 57294 492 42929 11658 3832 3981 1557 18409 4195 9846 2919 5185 9807 1419 5389
internal_value=0 0.0119246 0.0190474 0.0321802 -0.0572158 -0.0115578 0.0573519 0.00715497 4.75329e-05 0.0638728 0.00969897 0.0229165 -0.0217293 -0.0551527 0.0458877 0.0379328 -0.0767653 -0.0236732 -0.0140727 0.00650824 -0.0414792 -0.0772238 -0.0457794 -0.0829814 0.0551192 0.0552444 0.0107044 -0.0143566 -0.0426746 0.0238187
internal_weight=0 67833 61321.4 42909 14235.9 18412.4 21391.9 21517.1 19964 2548.06 17725.5 14087.3 4785.81 6511.59 9301.47 14349.7 11054.2 15864.3 13452.5 8157.49 3638.25 2411.78 5295.04 10557.1 1480.25 497.117 3181.73 2423.4 1948.02 1394.81
internal_count=600000 459852 420308 307771 140148 112537 172195 135576 121462 16524 105059 85170 30241 39544 54929 100715 120091 96013 76828 46761 19889 19185 30067 116680 11215 3411 20057 14872 11226 7162
is_linear=0
shrinkage=0.1


Tree=22
num_leaves=31
num_cat=0
split_feature=106 16 32 69 47 60 111 46 114 204 77 138 72 125 255 128 34 6 64 215 93 141 195 72 134 29 111 115 137 89
split_gain=4802.44 2650.15 2300.43 1997.4 2260.53 1917.87 1904.14 1928.47 1498.97 1198.82 1045.9 1041.2 1036 1086.23 892.632 813.52 788.847 783.197 773.109 773.005 751.546 750.511 739.32 696.122 690.026 727.987 674.403 660.661 633.31 601.426
threshold=0.00079348414192052872 0.014159607619382024 0.0033576555956692628 0.0045072260566450086 0.00080601097026785067 0.0027406775526440936 0.0062137641547139492 0.004223921954234793 0.002119197507323672 0.0038310548586466008 0.0033488077406761186 0.0013948169077624727 0.021428714339991859 0.0033445529902758494 0.15835927411849135 0.0040749118182231495 0.0035477431370422147 0.003835438436728449 0.0079522589445724535 0.0015614017882911613 0.0027429510725216471 0.0043193322570761758 0.0043151650493575147 0.0044898161732322113 0.0018187755315252072 0.0022045395541709346 0.016276659171827263 0.003866045987446257 0.013229251481700694 0.00034169973035096698
decision_type=2 2 2 2 2 2 2 2 2 2 2 2 2 2 2 2 2 2 2 2 2 2 2 2 2 2 2 2 2 2
left_child=8 2 14 6 10 12 7 9 -1 15 20 -3 13 22 26 28 17 -7 -15 -13 -5 27 -6 -12 25 -8 29 -11 -4 -2
right_child=1 11 3 4 5 16 24 -9 -10 21 23 19 -14 18 -16 -17 -18 -19 -20 -21 -22 -23 -24 -25 -26 -27 -28 -29 -30 -31
leaf_value=0.0033436794517276015 -0.073170021037783889 -0.087976778074021142 0.046105239824492855 -0.025209695686936425 0.092343781224004232 0.013128637596687899 -0.057826474630168351 0.088836489362851337 -0.083840833217327076 0.036840034171387037 -0.056844198293077922 -0.035435250863590825 -0.069252559590156068 0.04026609838127071 -0.082273866140538388 -0.033370655888057009 0.054840159274550743 -0.059241635262492709 -0.11096286178947708 0.087052026277972885 0.08227530293912183 -0.10095952691783319 0.016355764763738019 0.033442574355400614 -0.10305007715183823 0.054668102854839445 -0.078458949483476037 -0.053154513949571582 -0.13010217428639778 0.071151329970112268
leaf_weight=2610.8806037046015 297.20611098408699 3534.2774211913347 4543.0825367383659 1192.504908837378 9409.3666969165206 4012.2977869287133 2860.4533223696053 2205.2255790457129 8059.4444611780345 1252.0253913328052 5165.1870306655765 2228.9704423472285 551.76767655462027 1086.3105577602983 442.72829687595367 2384.8320271000266 2264.1074732318521 2383.8215734884143 490.75837328284979 670.13042537868023 1431.3041269108653 1796.2005126923323 1482.0623186603189 1023.1092545613647 2578.5279107168317 720.06472021341324 328.56530845165253 2340.8727436214685 213.55880557000637 10148.007170133293
leaf_count=16895 1771 25014 29232 7802 82119 23694 26349 14956 96339 7223 30296 12135 4346 6143 2105 12516 13793 13619 2359 3629 7993 12151 7695 6450 19983 5723 2299 13749 1215 90407
internal_value=0 0.00957787 0.0158586 0.00690284 0.0232231 0.0405816 -0.0169139 0.00260248 -0.062508 -0.0125736 -0.0194842 -0.0515409 0.0648382 0.0707721 0.0568888 0.0142957 0.00411289 -0.0138436 -0.00679391 -0.00712218 0.033424 -0.04818 0.0820036 -0.0419171 -0.0636077 -0.0352031 0.0626074 -0.0217939 0.0381941 0.0670448
internal_weight=0 69037.3 62603.9 51387.4 30492.6 21680.5 20894.8 14735.8 10670.3 12530.6 8812.11 6433.38 13020.3 12468.5 11216.5 7141.47 8660.23 6396.12 1577.07 2899.1 2623.81 5389.1 10891.4 6188.3 6159.05 3580.52 10773.8 3592.9 4756.64 10445.2
internal_count=600000 486766 445988 349406 206309 153768 143097 91042 113234 76086 52541 40778 102662 98316 96582 42963 51106 37313 8502 15764 15795 33123 89814 36746 52055 32072 94477 20972 30447 92178
is_linear=0
shrinkage=0.1


Tree=23
num_leaves=31
num_cat=0
split_feature=190 98 105 60 114 100 118 69 113 139 222 127 53 184 67 7 64 15 6 255 253 29 47 46 94 131 255 141 116 141
split_gain=4161.49 1859.29 2563.2 1826.73 1713.73 1575.3 1439.91 1455.06 1362.97 1109.41 1012.72 1012.69 970.908 954.126 949.042 1020.11 911.705 903.115 863.003 819.633 676.164 619.499 597.875 682.808 641.459 575.681 574.292 641.407 544.997 527.085
threshold=0.0005213112053395469 0.0008905167918657771 0.0038080021079100385 0.002601789918491772 0.0047433228220051657 0.0028911892442694035 0.0015658788377583589 0.003789524351990846 0.0027404298217012873 0.0064420570675717591 0.0018454395999874089 0.00093250330343531485 0.0043640303846779168 0.0018283136963185794 0.0031672732642153202 0.00718124728770087 0.0079522589445724535 0.005264350688420111 0.0038724939017657782 0.052868968022581779 0.0022889419953649867 0.0023357654100323966 0.0039420814664068845 0.0043242870073813017 0.003771714233639754 0.010626984136356838 0.10681899152600037 1.0000000180025095e-35 0.016493493840963009 0.0048297978353946521
decision_type=2 2 2 2 2 2 2 2 2 2 2 2 2 2 2 2 2 2 2 2 2 2 2 2 2 2 2 2 2 2
left_child=4 -2 5 6 9 14 -4 8 -8 26 12 -5 -6 -7 15 19 25 28 22 -3 29 -12 23 24 -13 -9 27 -1 -18 -15
right_child=1 2 3 11 10 13 7 16 -10 -11 21 18 -14 20 -16 -17 17 -19 -20 -21 -22 -23 -24 -25 -26 -27 -28 -29 -30 -31
leaf_value=-0.12639288345847027 -0.041781461140646188 -0.0078517008437529734 -0.044839708637317711 -0.088279108287891372 -0.084338445455098776 0.10000184165834909 -0.064215088110682148 0.086025933921364733 0.077614023068027643 -0.049259398054389496 -0.068918071874180253 0.025440862920688784 0.021827547927347032 0.07265581130741601 0.059381703860965578 0.076365165808650257 0.073676257622525762 -0.096190687791011795 -0.040455996175075906 -0.105213132940408 0.057449110200712951 0.14057391283140816 -0.075488431146556151 0.095902241681605105 -0.045020451647488899 -0.0013064457374480374 -0.092847747204279782 0.057898046480814397 -0.097257535789474173 -0.031194881958573853
leaf_weight=201.07686087489128 5729.1254322491586 2140.7106333971024 2450.2999429441988 2078.8738070204854 9384.6867653913796 4393.8388724811375 2158.9758442603052 6366.9203656576574 987.48518215119839 2830.4032108820975 230.17774824053049 4508.4494890756905 948.46283648908138 681.43422288447618 1963.8508738689125 821.20090145617723 1154.0795582719147 660.57653524726629 6615.7307337746024 1450.5596757084131 9559.8207323327661 364.99134939163923 770.1243799701333 956.62906884402037 1811.0072157606483 856.31543520092964 323.79742795228958 3106.7876256108284 222.48384258523583 1728.1249081268907
leaf_count=1353 35075 15851 19046 14692 111134 54609 16906 46103 10133 19497 2085 27684 7878 4611 14812 8897 7687 3735 37616 7436 70127 2497 4619 6592 9628 4844 1640 21406 1435 10372
internal_value=0 0.0124015 0.0181144 -0.000310458 -0.0431484 0.0437167 0.0252124 0.0390474 -0.0197034 -0.0023252 -0.0672878 -0.0229614 -0.0745936 0.0601469 0.0015529 -0.0241849 0.0590095 -7.42603e-05 -0.0137002 -0.0471772 0.0455165 0.0595543 0.0082988 0.0171671 0.00524831 0.0756727 0.0342538 0.0466955 0.0460495 -0.00182544
internal_weight=0 60066.6 54337.5 31598 17390.4 22739.5 14857.1 12406.8 3146.46 6462.07 10928.3 16740.8 10333.1 16363.2 6376.32 4412.47 9260.38 2037.14 14661.9 3591.27 11969.4 595.169 8046.21 7276.09 6319.46 7223.24 3631.66 3307.86 1376.56 2409.56
internal_count=600000 432510 397435 210720 167490 186715 109889 90843 27039 43896 123594 100831 119012 139719 46996 32184 63804 12857 86139 23287 85110 4582 48523 43904 37312 50947 24399 22759 9122 14983
is_linear=0
shrinkage=0.1


Tree=24
num_leaves=31
num_cat=0
split_feature=106 2 47 63 111 80 6 84 110 46 204 89 15 251 96 128 48 64 32 130 255 208 15 255 243 28 5 13 48 9
split_gain=3833.35 2113.3 2163.59 2602.25 1314.01 1277.88 1247.03 1167.1 1042.8 1062.62 1032.47 1031.4 962.703 897.7 833.338 1813.11 833.069 803.003 931.46 821.75 764.759 705.204 682.813 648.982 598.083 597.327 881.07 567.394 524.746 487.667
threshold=0.00073012885889236036 0.012137537298201639 0.00080601097026785067 0.0033311674429544074 0.001112336265186027 0.003487754904302177 0.012348484230116235 0.003901165668846835 0.0043266814362552409 0.0020042752210560591 0.004169408951590666 0.002985674654884495 0.01230162103175686 0.0016568038775131985 0.003319332683730285 0.0045450064366841575 0.0028814693995471183 0.0040507926394252594 0.0047717832608343679 0.0019511524066806935 0.093945733432112086 0.00537736788998872 0.0042799876933479796 0.040166218837557201 0.00022937731935885006 0.0016025662780987709 4.4855230011045587e-05 0.0027307075592680071 0.0039763521220392397 0.0052168634310810489
decision_type=2 2 2 2 2 2 2 2 2 2 2 2 2 2 2 2 2 2 2 2 2 2 2 2 2 2 2 2 2 2
left_child=4 2 5 6 25 20 12 10 9 11 22 21 14 -13 15 17 29 18 -4 -20 24 23 -5 -7 -2 26 -1 -8 -12 -3
right_child=1 16 3 7 -6 8 27 -9 -10 -11 28 13 -14 -15 -16 -17 -18 -19 19 -21 -22 -23 -24 -25 -26 -27 -28 -29 -30 -31
leaf_value=0.097254706800698448 -0.059758511388560899 -0.016178278041300981 0.064090009404790871 -0.032092549457228614 -0.081546828429767806 -0.010849982161379938 0.063599269942655356 0.035312485104683065 -0.068627287838596604 0.080667475257820989 -0.0071153024092927902 -0.038618967947478447 -0.055509329195863814 0.066378071945982373 0.083286220404317157 -0.020706925512106691 -0.059584748992521065 0.073776062513075821 0.025269331848899946 -0.076039470988971625 -0.10306938477276406 0.063193029029935649 0.036445681684600655 -0.090630091681107944 0.07753061012923361 0.10183900262412521 -0.074800022596841889 -0.11859394035760346 -0.10600062077509929 0.11126261771279321
leaf_weight=427.13412491977215 365.59397443383932 857.52577283233404 4138.0536186769605 4106.7525170482695 7027.3851523138583 1552.1798555962741 228.70231730490923 3873.880982298404 4445.6629577502608 1139.2113341763616 722.06167855113745 1435.2829776406288 893.6250305660069 1882.0262846946716 5896.1687341406941 3915.9633975811303 5800.4790790379047 9733.6486146003008 2766.1454971767962 1126.805959366262 323.58459037169814 488.67276410013437 2249.9202041253448 2971.8452821560204 2402.826182693243 530.78726486861706 981.65352051332593 676.67068437114358 2089.8017864748836 462.05599181726575
leaf_count=3661 3445 6721 38652 24788 90442 9380 1761 24778 34095 7794 4040 7817 5454 9812 61862 22032 48529 81001 17178 6707 1696 2820 13296 19575 18466 3524 6741 4895 15615 3423
internal_value=0 0.00821339 0.0143819 0.0264639 -0.0614359 -0.0157528 0.0429677 -0.010708 -0.0286743 -0.00991693 -0.0301525 -0.0223053 0.0466418 0.0209495 0.0499521 0.0408866 -0.0432698 0.0544641 0.0310577 -0.00405427 0.0423976 -0.0509305 -0.0078337 -0.0632578 0.0594004 0.0114293 -0.0226343 -0.0725709 -0.0806077 0.0284456
internal_weight=0 66545.1 59425.1 42418.2 8966.96 17006.9 29375.8 13042.4 13914.9 9469.22 9168.54 8330.01 28470.4 3317.31 27576.8 21680.6 7120.06 17764.7 8031.01 3892.95 3092 5012.7 6356.67 4524.03 2768.42 1939.57 1408.79 905.373 2811.86 1319.58
internal_count=600000 495632 436959 322059 104368 114900 239542 82517 91293 57198 57739 49404 232886 17629 227432 165570 58673 143538 62537 23885 23607 31775 38084 28955 21911 13926 10402 6656 19655 10144
is_linear=0
shrinkage=0.1


Tree=25
num_leaves=31
num_cat=0
split_feature=113 111 120 100 233 183 206 48 112 253 128 118 45 29 23 105 71 95 190 69 10 85 128 223 248 207 60 46 127 219
split_gain=3405.15 2390.08 1628.36 1489.68 1596.08 1457.25 1616 1148.43 1100.35 1056.32 970.826 928.589 883.794 846.952 773.213 744.999 737.489 724.455 710.09 673.188 843.614 652.58 654.399 639.763 605.974 595.74 552.861 546.198 515.474 508.669
threshold=0.0004882830905373484 0.0040377205320043024 0.0050461153480686229 0.0028911892442694035 0.0025835302718936514 0.00063054565281227021 0.0016741305280304792 0.01277483179284074 0.001116117142974172 0.0020625365030177288 0.0043020000229263148 0.001606375104379907 0.0011596967317831057 0.001091423688450094 0.0040973437453185333 0.016632572297127019 0.0044393958544802024 0.011140887609684865 0.0022312429714401376 0.0028259598429130279 0.003892853988291188 0.0052264117234734628 0.0033496241845395167 0.0038570383369243145 0.0042928082594018563 0.00099726238083162216 0.0030352812735910347 0.0020042752210560591 0.00076055102336661858 0.0025511325514642785
decision_type=2 2 2 2 2 2 2 2 2 2 2 2 2 2 2 2 2 2 2 2 2 2 2 2 2 2 2 2 2 2
left_child=8 3 5 13 26 18 7 11 -1 -10 12 -7 27 25 16 -4 17 -8 -3 -13 -21 22 -15 -14 -12 -2 29 -6 -11 -5
right_child=1 2 15 4 10 6 14 -9 9 28 24 19 23 21 -16 -17 -18 -19 -20 20 -22 -23 -24 -25 -26 -27 -28 -29 -30 -31
leaf_value=0.016292797744950169 0.0034325908906731907 -0.063640752482029467 0.083438189972247612 0.097635512974145383 -0.060180210916333646 -0.025875555069320096 -0.05397657647511403 -0.097059876257501218 -0.078437474196341353 -0.056392675505701095 -0.062061169535301379 -0.033774833087373543 0.061693801557591216 0.035800492483725153 0.064068546429971715 -0.088505088380561953 0.057262304793182978 0.096568328531781919 0.11587487877262259 0.029613776697708722 0.10016475321271295 0.082342061184782434 -0.047698962757343963 -0.011942182302034038 0.026382245512337796 -0.077357069603129325 0.013957013404263944 0.10493761672354274 0.035623845472127942 -0.025004528408226728
